9359 10
0 -0.04022302405177621 -0.09248081713499931 -0.03264084090211784 -0.09349641204462583 -0.012726242733616954 0.044590712244157144 -0.011139810872814467 0.036740617465477445 0.030770962562201194 0.00043388456873468114
19 -0.0635740929488557 -0.01764678204607347 -0.09953922637507791 0.03544426161574517 0.037211258716414675 -0.004898155755260523 -0.03748552664740981 0.07828155366298095 0.056049895691324146 0.08823412965057117
9154 -0.07552713438446153 -0.0419001631975082 -0.159823669064301 0.06577387452439873 0.019910813883522782 -0.019176573162902038 -0.07182458661183684 0.016373732987762242 0.06076219645268538 0.08370834862782386
5476 -0.09816713235019828 -0.034101342539926985 -0.08733803386839134 0.07420638931559284 0.015469314785121133 0.03637887036647709 -0.0757067015467943 -0.0471205199381927 0.09789365770497352 -0.049192010763325085
5330 0.047795349982371435 0.07078246532437608 -0.07910763863720896 0.06057607047102994 -0.02513825576780449 0.03955003561750113 0.02488195859468039 -0.029552738658129303 0.10848290563242408 -0.06538003518719054
4218 -0.012902589241308647 -0.13237719056696443 -0.18194270170954413 0.04522686134815113 0.03639495573889173 -0.014678236928133203 -0.07524729232686374 -0.06190977325150382 0.12714758544540355 0.08654396815360445
11 0.03819238719743683 -0.03053132630934745 -0.09446446781004898 -0.21734237508545573 0.15062235922145728 0.12313677213472225 -0.05372215577372356 0.03469100000556476 0.024333675797770325 0.010209075781398867
9233 0.007782395375668125 0.0236924546988497 -0.0647981772284229 0.07559158802038239 0.05414933577823605 0.019030091486089 0.018870980118273782 0.055850126584370496 0.05788869584725722 -0.0013939859120186944
3291 -0.15857297767602133 -0.031336819336985226 -0.12827088766673672 -0.0485676262962479 -0.08854597196282057 0.00995897322999664 -0.10931252582861593 0.014606302791315952 -0.03667380797090043 -0.0060700681811415415
1740 -0.01599398530839041 0.06257777079972592 -0.04724152859320975 0.06582822954503739 0.032144196848907604 0.021388659726065084 0.022233354554049588 0.029127234598787206 0.04908347371142268 -0.04973576786736361
2033 -0.08340089719623207 -0.026586576469639172 -0.0817506084206363 0.12794432238891662 -0.05866649540699843 -0.03889875804164928 -0.0861170711688789 0.037786404680990614 0.010404020275013918 -0.01934768054491201
6417 -0.09534319327613028 0.09019631325153046 -0.10463856317055782 -0.06882568066486418 -0.031507644806306176 0.07700373426472204 0.015494431992642131 0.06360964867030787 -0.01182441080957256 -0.09334306264786786
3650 0.019613441729090665 -0.10222426552457967 -0.16823284698157062 -0.1307855319585306 0.05943426261678058 0.11083815961963622 -0.012068760808637717 -0.07153200049768252 0.15805687822513498 -0.08242721539723612
6165 -0.03904500579930225 -0.16708510236978993 -0.13450534669573969 0.02485969744404077 -0.0411918590471207 -0.02478228522419319 -0.13159635518830162 -0.03562297405538721 0.1489955105986648 0.03987248658695351
4353 -0.09515198075509543 -0.1877884862215483 -0.19329890749450523 0.10881722408622031 -0.06999024556148363 -0.03772802034498403 -0.16795090459754608 -0.06892984720499186 0.0937059228563272 0.02098150492262079
4985 0.01984373524377009 0.015442608416129952 -0.06948843912538553 0.06939826252247402 0.044922711355546895 0.01863967082854808 0.019196860157823688 0.05796583106902542 0.06380387963844592 0.0022913013812944417
8972 0.010275455904443825 0.028322890976963087 -0.14139129385504987 -0.03954731986750176 -0.0013548078889382468 -0.07039015050613495 -0.026150785141755818 0.1505993526998823 -0.007438820559981246 0.18309297107255615
1898 -0.018497577971868472 -0.00011212276328243024 -0.13140485612584654 -0.020076219119353905 -0.02381857197415327 -0.05236345866492392 -0.03908410948337242 0.12251291443194391 -0.005691286929407468 0.13851691968436672
13 -0.09119668755510726 -0.085645688206672 -0.07009386673618176 -0.119766438401801 0.022501806158519225 0.11008601299201937 -0.05865515016019467 0.019116755268761516 0.04757029389652178 -0.0374400948233651
9158 -0.07168277547956688 -0.07379379600335603 -0.12567687381559287 -0.06353616543688236 -0.043830921364563874 0.00755605398047987 -0.14343962670213395 0.025830591290055962 0.09357447137798214 0.013443575361213097
9 -0.03562265350964536 0.2186322913861836 0.12641563787247587 -0.1772014310751587 0.13590429330126935 0.13331126344850772 0.13600487314907136 0.06810933114825143 -0.019921577976570185 -0.01927464575450119
4232 -0.21292394529644798 -0.2535760840921686 -0.12853124783112027 0.05091355649742675 0.012508849707030928 0.11892603536897219 -0.09108025758302904 -0.15186070835637358 0.0863753220256474 -0.10513209591184272
214 -0.10951394710065206 -0.2437636005346109 -0.18788881670808072 0.11629510310644622 -0.01400203038339096 -0.03511646632393864 -0.197241484170065 -0.029821592341828143 0.0497975972274157 0.029071465702504264
7793 -0.07413274386024463 -0.011518896847051789 -0.09610332582790058 0.1573763798748456 -0.044503441080176634 -0.08686258688586054 -0.09913715332099747 0.15371626527272944 -0.005605605798065801 0.10330063657652458
16 -0.1044123976055899 0.05519494326594241 0.007432211739100004 -0.2392896310902261 0.10100406597490315 0.1462122473581482 -0.028619533581525074 0.039224110931265675 0.03399934167264379 0.023105239955196546
6144 -0.20228514027904723 0.09853079909362122 -0.048782467388858664 0.018434066165769696 -0.11132468355282649 -0.0984016812098229 -0.09230085282234099 0.1410512138335004 -0.1319252338642812 0.0013055349077348507
5940 -0.11389574830145609 -0.10263358678876694 -0.07596341408704198 0.13072092041561667 -0.11221920526234246 0.005980832211351283 -0.11856934494172955 -0.07089137231666864 0.09213421217486949 -0.10164075973839964
8500 -0.10849292913179918 -0.1574084879130224 -0.15273156418408051 0.055492095576426585 -0.0745095163630272 -0.12116511741423269 -0.22912811142976913 0.062451122674261 -0.028519034816772003 0.0883771117257111
2190 -0.16994304840231486 -0.07141916644754329 -0.0348857801528416 0.05078583674204965 -0.09690035349819216 0.1252247367884185 -0.033850839761672816 0.04058176403777278 -0.011964188743242789 -0.1429716285607822
148 0.1235484954749354 -0.08496385748390305 -0.14090525500228654 -0.13120534927951918 0.029283378710781974 0.024861077408832248 0.007077869504567994 -0.12311926836488492 0.17549412619721586 -0.04103894595482165
2234 -0.0918885499194335 -0.23369339833856378 -0.10355413924941284 0.08455064418467008 -0.017811708707628247 -0.08096294032955484 -0.20524820993044016 0.007655189618971948 0.02870879090977847 0.0888245019002085
8569 -0.11817777911790624 -0.09263543884132414 -0.11591798046360971 -0.0422131531420271 -0.11437495629893146 -0.02449785056641369 -0.12508074729851426 0.07142553174057482 -0.05940292475730526 0.010841707337453784
9225 -0.0736762331706783 0.050353683824495954 -0.03982873408847938 -0.2230224108866963 0.16179741595254518 0.18541937064175407 -0.004876567660535834 -0.006868982813987351 0.11944517286858787 -0.04002958655546028
854 -0.12122490728608892 -0.2270978343460017 -0.0789212418244232 0.04646110193314774 0.020225828140695623 0.10397932649206117 -0.04138842491933913 -0.16183311451029847 0.13596759148648752 -0.07139679451354072
7410 0.013832024803201746 -0.16338029167509238 -0.07128643171609474 0.0011489483581007965 -0.0127240690482272 -0.01555176023287619 -0.058270639739641944 -0.005873329251649391 0.058345018047097796 0.018255696433515538
5671 0.0752925790399127 0.1076816981328837 -0.05212484135263257 -0.0988153586295118 0.026694178357033468 0.02789796534621468 0.15105267281039786 0.02112027608974337 0.10988634944298603 0.027925558716290738
7821 -0.2239353134041904 -0.20767602372255775 -0.10178338181699341 0.07286164682867466 -0.060797453272552676 0.0673744364076179 -0.09302529170764137 -0.11713276222711493 -0.021598165462165198 -0.054196987257008646
2159 -0.21713009118439225 -0.09504566712343782 -0.14506839085169165 0.010568345426039667 -0.04348471561367701 0.060989543773257826 -0.11175946016347 -0.02643220040140831 -0.045525417529663485 -0.0542313891796062
5856 0.13277967163785437 0.1402199651107245 0.01936836279325423 0.025489087117794868 0.05964763061962462 -0.039208765446159075 0.04701502575460566 0.11637982830544774 0.14024324628974558 0.1269415183087416
4307 -0.08615319327591607 -0.11955963942790211 -0.12722846469673788 0.129997792820702 -0.13818104361499106 -0.04546079093850622 -0.04776783252068695 0.104745591523149 0.005760733668448944 -0.07711888323236497
4151 -0.11843576509931862 0.08318972421739657 -0.13132208537942508 -0.09968676039419928 -0.03280337657931811 -0.11073719832581704 -0.04872689372947242 0.10938248735832815 -0.12441777963182153 0.2522929667202747
1513 -0.05168601490820931 -0.051568746417859176 -0.049253084194658354 -0.06620976215847772 0.007956555061586603 0.038407843207315176 -0.05161592504665319 -0.00403223797163269 0.009223607695819295 -0.020626240069611057
1 0.04397811616676083 -0.043086797037122225 -0.05822086167589921 0.002759210847168289 0.015868890400175546 -0.016229293490356345 0.051963201140718084 0.06471393712100985 -0.018163588195332505 0.1334280976034402
7344 0.00866652411817807 0.09856766583992374 -0.04564942423383027 0.12563430449922458 -0.027243743197994365 -0.08768660031031066 0.021139102338355895 0.10753026767527797 -0.009829622189325506 -0.03172770382324966
3536 0.010176784405911743 0.20095901243867917 -0.045544940240972755 -0.012303394661355523 -0.01779285786464953 -0.1288495186500602 0.02715474830296419 0.20593448025934308 -0.1286376110919356 0.11291305417237602
8858 0.16802353022711702 -0.052547576571818105 -0.15654791057232675 0.01608540022803941 0.12935098174102186 -0.04482592882100608 0.012017546838749806 0.11087086095797062 0.052812732815944306 0.258846025061753
7172 0.09099373314246534 0.13108242167198858 0.03800785832325652 -0.04709885660347322 0.013219686035919033 0.02605583702320911 0.15439891967362904 0.08825044690461274 0.05601419348391518 -0.03310474338318323
3849 0.015065197839694872 0.06818195507011379 0.0028360562393283397 0.0699436632660928 0.024784156894662058 -0.008727988102991587 0.0905991468965132 0.17402051711558708 -0.06093698686298042 0.1790367292122626
8657 0.10070417172731079 0.004128488650652799 -0.13811488955381232 0.007320592338950825 0.12307056084038391 -0.021334213311485398 0.09818046322498816 0.064375513028306 -0.028540001929946514 0.25176119847060635
829 0.07584051539658747 -0.08982264493933963 -0.14070028326362954 -0.042187371509771525 -0.013161677524160994 -0.08156700858403299 -0.07580933773658746 0.12527464380189934 -0.003108306402335551 0.10806499130711632
221 0.058874665460176404 0.12351983949886079 0.016688200077968608 0.06517489130509106 0.02301452127423196 0.05982483495591885 0.1485777514479958 0.15718180084853206 0.04543944051793523 0.026248282836001974
5936 0.18010590207533198 -0.0809835641571975 -0.16351500919647305 -0.0029528368612792314 0.11014219725137431 -0.04531584244895596 0.050008537684078376 0.11321831558715707 0.031762195150551314 0.26775055342734755
6222 0.08112184404595625 -0.015419239767615044 -0.14725012002147878 0.11236280696305248 0.05555229201301537 -0.012746360664217724 0.13336420745231536 0.10601457188448415 0.019897565887658147 0.13503620638144967
6862 0.08154976852753991 -0.09913176398681671 -0.16056713402364167 -0.021068122534467743 -0.0167660611538935 -0.11836962801033488 -0.16835035293395995 0.1618484703209705 0.012066650601639984 0.10357799039426513
8532 0.0885228482120226 -0.04129053973126659 -0.1896992706133848 0.014913721282695549 0.013439867508786148 -0.07855837159875957 -0.04463102580676293 0.1353899698687211 -0.02538600740866412 0.1665459864152339
3266 0.16960887973441857 -0.06690646850259603 -0.11565975961857293 0.060543347235529926 0.04032404650161165 -0.10150177014200024 -0.0677754229216794 0.053496333495112645 0.21572909840324073 0.1491655527219347
5574 0.14212019476899973 0.09053872609314094 -0.007952251214004093 0.17233108021761398 0.17443115465145026 0.027401393620081056 0.24475354519254053 0.12492819250775211 -0.021718232737021215 0.14668488844979974
5531 -0.002548582892353313 0.08504788720590903 0.1114544182883819 0.08305503314438308 -0.08151329311022026 0.015430800023483307 0.06862752052974444 0.138247763765805 -0.05881018892478547 0.03220589475986632
8162 0.11168585065428198 0.08385036478833911 0.02054598580404521 0.15870848137045288 0.1474453842233051 0.027492337034227984 0.24346744316226002 0.12358446932804568 -0.03656812797996487 0.15012662191220089
2456 -0.026429116403108348 0.09915683041722129 0.021185006435190504 0.028672873832776925 0.00841149376120053 -0.004429767782651979 0.0840157185641062 0.09891495206377762 -0.037336145689137436 0.1741366337081488
5194 0.04197322150600886 -0.01728716891792445 -0.06699981374557162 0.023187046620918788 0.0203497805565471 -0.029314024079812633 0.04591356584595002 0.05162448697967613 -0.03932757419421664 0.13451706903753372
8212 0.024950770073120285 -0.01188063427487134 -0.05327018697056971 0.0322635976965067 0.02864500187453239 -0.032457868964014196 -0.0176730691302759 -0.014359615093064933 -0.032968433020141824 0.04504401407949423
2 -0.009049951240658185 0.038591893114207326 -0.02641215619774916 -0.11469830039285919 0.09849997419315971 0.039160751024138456 0.02320874736291604 -0.018177969260235658 -0.0010676801122693614 0.09139108143891987
2114 -0.010922383736374039 0.04003826614784471 -0.01923898003787321 -0.12043240317788456 0.09822304777104912 0.04116931725725649 0.03968639630248328 -0.009222352509106115 6.038837670619558e-05 0.10797290107899084
590 -0.00011329630206704132 0.0472398882996986 -0.003592594891826585 -0.19868619255987288 0.17045487963912453 0.12896905962359054 0.02723878154922923 0.006507946223175829 0.08695403595446952 0.03785846933384702
3048 0.008543706343781654 0.008896990749935071 -0.012706581470366109 -0.14582253176485502 0.10104964488295842 0.07328765751465738 0.031295805941537885 0.011647906197548717 0.04218536936706969 0.056357181585483425
32 -0.004277231151949262 0.05969997248376911 0.03521932232908189 -0.17063063973638565 0.13400958583993905 0.08872651103604244 0.059540513986977676 0.02309544464054832 0.04602673825369195 0.05357276872692717
2504 -0.001111257078178476 0.032548198025342555 -0.0064106747822853 -0.19969588005115788 0.1644286879682536 0.1294549014869359 0.025420623131345545 0.011104117094304535 0.09024838599898233 0.04053210433499661
22 0.0035181235304177815 0.03180873576427316 0.0074410242465140315 -0.16478936667862365 0.09737614303493539 0.09258545752162868 0.021066533131379912 0.011095617043298605 0.046219383193596114 0.027502099305196478
3039 0.1738813941887568 0.052413506332216704 -0.09284547577209828 -0.14263338259438116 0.007078168458018931 0.038868583378774725 0.15212138741761239 -0.11874083280079624 0.18611263437452316 -0.050938017399914215
9193 -0.00831394689260188 0.04482577246749516 0.041734580338508645 -0.1671725546153946 0.08799084114455946 0.09320288391072612 0.01805691423037703 0.02831377580297268 0.04293012913431663 0.0205034422740636
46 -0.04301664773408419 0.10797653140901371 0.06427573920827886 -0.1502550081960001 0.0765249235820344 -0.025268554957500227 0.03912889094315657 -0.04057629741273126 -0.026512646619080267 0.05696070365172921
14 0.19592694126499455 0.07025840141027741 -0.08850568713606718 -0.08183512339681326 0.054402271918445495 0.023355999782277363 0.15498991661477282 -0.04562629458821659 0.16658516101481913 -0.0002846851066135803
8819 0.003327755194926311 -0.016299499190658005 -0.024406475326488264 -0.10930809017999765 0.026629232120835497 0.04100828329743153 0.021467040730583704 0.01763817209089564 0.055790403083555054 0.031186511599198937
2913 0.06379335421269804 0.026201876261236753 -0.050120610044569885 -0.07155252101380385 0.0803249874253457 0.08908701577655827 0.10096428965319737 0.008189687781686147 0.08706442795546358 0.02529072113061095
48 -0.08372755185534579 -0.012020455860705603 0.012604084483699441 -0.2258422062826767 0.06209948180306843 0.11946090581059299 -0.015605289217681284 0.05413567617347514 0.04482229387038091 0.050313420703576556
9041 -0.06658678058717601 0.11448884928347387 -0.016552725837341367 -0.04025872774315456 0.015105977037468363 -0.07130583913645099 0.04657792129920646 0.06950623065535652 -0.10524402749083847 0.203955278931346
2487 0.0006438432306788192 0.030060243524093776 -0.0189933741737201 -0.07889333935719561 0.051151356735869506 0.019841608186658522 0.0717501977945387 0.0343791966376499 -0.0031708679154613065 0.13242878353016518
166 0.006665083193501214 0.021556572781960617 -0.02917121625163603 -0.09372107819440212 0.06250901865054408 0.02852014201571167 0.006771317478084714 -0.02410254999322069 0.01356648213443941 0.031209701270683225
3 -0.016971832719826593 0.05303889972268448 0.06633215683663167 -0.051699942307472886 0.006418518673430238 0.00930692953613376 0.014908067113969059 0.02286921480794068 -0.0330646531474046 0.029571094030190582
4417 -0.07217196351850146 0.19112128322336142 0.18086075313834699 -0.06362172412291789 -0.015544048603378274 0.045189037789671746 0.03551085659809879 0.09281211274864318 -0.11704642819884158 -0.011813981350348049
6136 0.05753434102517055 0.22816909863821255 0.21535213637154035 0.13099988600507942 -0.02408216668341125 -0.02195136560982937 0.14864155209460736 0.15514737756140484 -0.059075706346330026 -0.13755638130541845
4877 -0.03775273828757987 0.12436372463423896 0.16895674955784148 0.05358208469891018 -0.06305167274693733 0.018330987428701775 0.04886438654905057 0.16400277970780983 -0.06785411643240995 -0.0933619322752988
3305 -0.0005840232963579967 0.24186743784146592 0.21730740544572907 0.005540568059148562 0.08898778522769216 0.043455525321303194 0.14542378089235367 0.19400805105387922 -0.08344013876403698 -0.12287248583154681
617 -0.06997587991945113 0.1447072850618143 0.237009250302958 -0.08879691999885948 -0.03351762441010125 -0.03156607143564468 0.00010100853066372511 -0.006006938434820883 -0.07405778331803184 -0.07788793226389007
776 0.0012102882358892347 0.1383356593003651 0.2831600228258054 0.0259962370422223 -0.07658256287625836 0.016117887771228776 0.12275254308856565 0.10833547934440578 -0.028565647328163 -0.08080324220982409
6486 -0.0444931830368821 0.10427517130489117 0.1746913875972132 0.011121287740313191 -0.06981015402782044 0.022660071184148752 0.018413702888070198 0.09834875032657374 -0.04644183119123408 -0.05535438594213401
4333 0.04295527484810812 0.19139550220062196 0.2668691931863949 0.03745721799898752 -0.022392055809564264 -0.002356190008982173 0.13306146904042468 0.11412749458081171 -0.04314288009365625 -0.11739120960184293
1985 -0.10662520778758433 0.010412345296228668 0.11201758262323913 -0.05455538424708436 -0.09896575866427491 0.025761209543812832 -0.05630302607111659 0.020641927575117847 -0.06028001501993325 -0.08890452945224793
7638 -0.09241126071215605 0.1180429628511943 0.16772030665525603 -0.043097547714568536 -0.060669082167212555 0.01793814367913045 0.020982904138567553 0.10345751089948599 -0.0797685033464446 0.036197531241862334
5628 -0.022436620522505894 0.07662108328431949 0.20475248609933075 -0.02392842688669218 -0.04272852467914356 -0.013459426872512363 0.015031906466470221 0.06061511451628971 -0.061211103865860955 -0.06471569146154357
7179 -0.045347101705181185 0.05736152889736087 0.06458536163534691 -0.036349449025430206 -0.040339644237835856 0.03209896699231309 0.043053597570491445 0.1099066384003871 -0.009758451533939451 0.06629692349241173
2288 -0.004815472896123509 0.11454683450536221 0.21488733625974632 0.010529406265428124 -0.005594060108401259 -0.0358655787095887 0.021970279219619453 0.07284974051862148 -0.0924506626045788 -0.08161624022041386
4044 0.0015248628549449825 0.11746264642017631 0.1776092541608874 0.08206136712597085 -0.01495821830538297 -0.019454327688330036 0.06552770549309216 0.1202709861738244 -0.0880259311414384 -0.05272375824597408
6802 0.037943225551579356 0.03720320277633866 -0.0021956231881677187 -0.010770481294958561 0.0648449594181618 -0.032122806072725774 -0.00654698469154447 -0.0007976082564236169 -0.05516549474678215 0.06237368287827647
3184 -0.011610989759588637 0.06782023213926641 0.03408291853669554 -0.04474602270590124 0.044643886003379867 0.0026459688285054386 0.001008851306667533 -0.00890554049250739 -0.036785902843482814 0.02139014133095448
4 -0.018259396514083058 -0.08922928958662452 -0.040331762301337004 -0.008278776290103857 -0.050456125430530324 0.024354569026412035 -0.013327016574361925 0.011532469056938742 0.021078283376688517 -0.025405184344359972
20 -0.003046580190396822 -0.07205553600246895 -0.057017837651804265 -0.016976078407871065 -0.06330922737079407 0.035008295771100754 -0.011571205995764654 0.016719721518749987 0.03240588041810231 -0.037913545664385415
43 0.001965294698664551 -0.06347265040131125 -0.050629434843283756 -0.03343714961192728 -0.06894929489866071 0.04029649671553056 0.0070316379765987475 0.03022583329036349 0.03755495574382669 -0.03421385207890191
302 0.04674524142500433 -0.06451465821149954 -0.05896082306961775 0.011589189807429257 -0.13684577405955145 0.07865215154605018 0.04332398273873595 -0.09240039876319452 0.039313216950976955 -0.21465693785428538
6556 -0.20991179191589718 -0.1630331273828251 -0.06426461205046193 0.08367942440932358 -0.07221992819779062 0.08388674950860593 -0.07287071154407654 -0.11131781081543693 -0.03038282534970787 -0.07599704371242255
2464 -0.015342825180352453 -0.04511965923928259 -0.11131987141232233 -0.07536910235199382 0.020043075365360458 0.1835671691260268 -0.04376604847019243 -0.025532792142029536 0.0639804882148763 -0.13692872581187276
6200 -0.12057584316273336 -0.16054761137174162 -0.03367932656175877 0.12051469942075149 -0.07135189568392476 0.0616294114497642 -0.047156041267548625 -0.07913340809715036 0.07043941622804532 -0.10421579236408818
710 -0.21942327846593107 -0.14255364446585383 -0.027827434906269058 0.06592065197624958 -0.07611642820053417 0.06098152201967278 -0.08684335338098802 -0.10900519469550735 -0.007534935490124878 -0.0601638006487383
2515 -0.07977502674939345 -0.12365178392948713 -0.1260011730327473 0.1329343391268276 -0.12138105495240467 -0.027213713641796138 0.027070178308433845 0.1312181363752878 -0.03171419079086905 -0.02088237413682256
4893 -0.1534373496662767 -0.24481850884032555 -0.03308561799830155 0.18025436704562278 0.008839592798878472 0.04163145527149334 -0.06702945393116425 -0.16699152850688123 0.06503430254956469 -0.026754149245899337
1136 -0.10845886792527133 -0.22771851642238497 -0.07386818520742652 0.1021999250592437 -0.02856475927371692 -0.07027384400631974 -0.15985197579156096 0.005858924807131885 -0.001699887209395121 0.06941045759552339
3887 -0.11886589624327976 -0.09305201467357269 -0.09409050394059049 0.013918987941637205 -0.003644421678180245 0.1626895697320654 -0.03644887158740866 -0.04047243174555859 0.05289516919713559 -0.12832437234515945
530 -0.041722369555033195 -0.07621774710840286 -0.10402583598537285 -0.04705874173884088 0.0022393590755668356 0.15231486161593788 -0.03018904414169619 -0.02155213306134437 0.07337872281044054 -0.12205984513615115
8002 -0.16995837153748655 -0.21511538066853175 -0.07115703155610001 0.15350976231944907 -0.03587484893663675 0.08492649948951637 0.02015502987988362 -0.20083848965699871 0.06265223053943612 -0.09346053990793751
1839 0.0016533050439078512 -0.015503400094759761 -0.04806556140387952 0.00836243531250325 -0.011748799742037129 0.010711473426430574 -0.02274236871059517 -0.030480609838639504 -0.00252230419889515 -0.03275010181093764
4228 -0.02141843730422828 -0.04210655200019814 -0.03744495596340871 0.020755573610753187 -0.009350468818471156 0.009791969568008433 -0.02386475813788632 -0.035908181639630075 -0.007727029261223079 -0.02634683698701328
5 -0.01356897038349259 0.021422914471300143 -0.017853900604580978 -0.11484529796979079 0.07817414764864915 0.05568753854410986 -0.0036311677091023023 -0.014754808090416864 0.015606235153854418 0.01799555970566237
7777 -0.011571121049829604 0.024180373437704853 -0.020429715605930553 -0.10545668789520304 0.0770044138550968 0.05060044575638904 -0.005814219073978874 -0.0178561300676906 0.012498737586110167 0.016480472532716485
21 0.01397180871925214 0.04730522077341325 -0.020032907408754793 -0.06780296811267038 0.07059884763280501 0.038877760045606426 0.025066285574333422 -0.017095626738463272 0.022955715874020628 0.024244158680592667
26 -0.003059110342217021 -0.0035690632938603422 0.014425899422670873 -0.140686540512291 0.06453089164800113 0.06925215624773069 0.03163060202186031 0.03397751350267944 0.039245459898866825 0.04911480636454005
45 -0.07344253185551196 -0.04545807691139986 -0.04257941504336991 -0.0992933849845344 0.05775927434008655 0.1061568510152624 -0.03856934232603878 -0.007060446943801305 0.03998703162424664 -0.03347145685381049
52 -0.005009925653875293 0.04092749390555828 0.010684388094317347 -0.11246151876873796 0.0945182918298632 0.06993648416405071 0.017499133242848342 -0.005958045970766737 0.028644394195581065 0.01971530570338566
1003 -0.02398957114078922 0.02581288206175171 -0.02157184799088619 -0.08183049619983752 0.07379085016326241 0.043658992013146596 -0.021404124026139816 -0.02742783197635357 -0.0033170407163839078 2.9157759660065632e-05
6 0.01024928203806295 0.03284487537529214 -0.0009013381999547715 -0.07413863046750079 0.07293161257664985 0.014815000981915478 0.018136149212089437 -0.02232087373464329 -0.011527200757905288 0.037001402017356695
9091 -0.004847498590947784 0.041663233408468975 0.015290298809810728 -0.08742497193229119 0.056461302814359314 0.031108863336165114 0.02274254427264151 -0.005468792008294705 0.004995741457590066 0.03863522997990369
38 0.040903328870276943 0.048692382295423726 -0.002283937190126317 -0.10996927739701119 0.03842703402225108 0.006781566665050722 0.06739481353566595 -0.03090542856547175 0.07072122298359573 -0.01473940262211204
6116 0.04812924877301436 0.006602980109339677 -0.02150385278406694 -0.07246403155237824 0.07240291151720471 0.040801773260068716 0.0724539854247169 0.015752405012942505 0.03758057509506225 0.035112697374210036
15 0.02796694429255481 0.04543540485764941 0.014664889895159357 -0.009951193771790445 0.08399915424091112 0.016471321727457362 0.12319407237822606 0.051707120527000036 -0.006594440000684248 0.16503175291067718
459 0.021909752259158526 0.0610449824877113 -0.010025578522688702 0.0041433048030995664 0.055344598843747185 -0.02274331749454439 0.0003439109619458429 -0.02733387558646688 -0.029771424467844403 -0.013685168225149915
5860 0.005343267490412156 0.048136927977613146 -0.004663409867274628 -0.052427409222150875 0.07221465504790188 0.006175469083862065 0.012372663070697813 -0.026736169066518684 -0.022586081616377134 0.0362296697747625
7 0.07673689917428918 -0.04164084395809714 -0.0973635765064359 -0.012026098428270161 0.06521683377919765 -0.01742067471845967 0.08672114904535956 0.06719540669624534 -0.024058395651459376 0.20706811865267338
5471 0.11416383476528615 -0.07226748399861586 -0.12263490627332947 -0.012335534603694742 0.06613259041129717 -0.03214107794738627 0.03492598642391205 0.07041764825759317 0.0046616652811218 0.17344636356970292
1453 0.027323925668303814 -0.07883623013090604 -0.052801429379549285 -0.01959993651341929 -0.018673357613397647 -0.03460037673725488 -0.011023431630015495 0.05658489526090255 0.0010878015058497501 0.06576972142653528
346 0.041116383337493526 -0.05468736670637317 -0.1382201264128205 -0.025671549720235547 -0.03471570743901538 -0.12057180403523753 -0.1592947282438777 0.15637491433202313 0.0009661204766953213 0.1296485185060414
5101 0.03591181341418007 0.001129120166731314 -0.06166214388422634 0.0018181078441503967 0.030862088160876003 -0.03158269593905859 0.025913303927810032 0.02946738870848892 -0.03853284222161649 0.11644196901307505
9034 0.036117988759371375 -0.00937066765702185 -0.05462735264482149 0.017971827922529708 0.04511254298980752 -0.035481762915028144 -0.013022872289332464 -0.013579008042534944 -0.03079946159864828 0.06432816419547371
5970 0.03865170672138386 -0.02322233561791104 -0.08150786082351846 0.0030718551579478905 0.019046711470702995 -0.03926644152110698 0.00955419638236842 0.046358275126743016 -0.03341681614887155 0.11123043653450784
8 -0.03496330061811846 0.03348583402926322 0.0664759343083269 -0.05692635246969309 -0.016433453725078883 0.04030429683006144 0.021867659498936546 0.05739172491335485 0.0019280779789969456 0.04571747851262336
44 -0.03209564304800551 0.046945273608755334 0.07568314105544693 -0.06104301129166794 -0.006214282234412803 0.048061152674135264 0.02224182700367383 0.07224271690803928 -0.004056941206013831 0.03278667773575115
40 -0.026425565671250414 0.008473648827543388 0.04154631218172408 -0.03820679781414434 -0.026865588658933556 0.027948907941919364 0.01881791063070732 0.05287105987707417 -0.0009195174208184253 0.02969286632939639
3064 -0.09233552652680346 0.024679747259575002 0.03775444226279296 -0.06117821630906394 -0.09327086323250935 0.014529338889300088 -0.05169480862653843 0.08537217523697808 -0.060613060795212385 -0.004689210646186253
6661 0.08986566792826688 0.09590550058528613 0.08008824917992603 0.1116583855244646 -0.013478953437692377 0.021805146532649124 0.12275468610138644 0.06526969221650795 0.022594631486311995 -0.029999199210728123
2112 -0.008689827349289508 0.1026196788988207 0.12019822524240417 -0.01138798374076026 -0.007913259265414587 0.03214767652524365 0.04852691034178106 0.02943889291335186 -0.0004700486900914116 -0.009511761172370323
3453 -0.021192474696776136 0.026390075046716057 0.038506919780342125 -0.032136920984101695 -0.020114808275869818 0.020271030995856594 0.013445956383207022 0.04589297781883344 -0.014177254350661016 0.02831289292182271
8621 -0.03394048388571133 0.019195450511383053 0.030192062502659156 -0.03401919959172018 -0.02436651578136975 0.016792396767008416 0.0005199245849005636 0.043719842086749436 -0.017106989070321047 0.024131818702739487
10 -0.03285852717365587 0.05602468473937024 -0.004904673044428722 -0.14218601934634012 0.12846140611567974 0.14004314199676068 -0.0035249766023987454 0.005556595625994466 0.06650635038871867 -0.007834843537663845
51 -0.04023136678822035 0.06197585485633623 -0.01028660449977089 -0.15762812930307712 0.1422873019904765 0.157330575336192 -0.008445213174358123 0.00920643473421118 0.07631429444893655 -0.014693129745538363
49 -0.05985487934962876 0.03459657726133782 -0.042673604132857215 -0.1487528051283181 0.14016944802094963 0.17039199848176947 -0.03988857690274853 -0.0033854344342878883 0.07451507915466188 -0.04833641934026913
12 -0.05544321521745782 0.02097492976471156 -0.03834532474542416 -0.12288199667794959 0.10707473694154555 0.14094630287007243 -0.03451525361069475 -0.0023533638654392656 0.05493968985251326 -0.04365716379043702
288 -0.04813057864257989 0.004175694271452253 -0.027538287938271473 -0.19810170348286008 0.12831185308012752 0.16528524725073962 -0.0052869998490753705 0.018809966796836684 0.11300065400423316 -0.017657279201298094
8184 -0.05232093354074175 -0.027384345907835644 -0.0172115017576412 -0.11421194409086483 0.04275838085266309 0.1123648137008932 -0.006350908184095797 0.027962986301073422 0.05825935835891737 -0.025418862865006026
5878 -0.10122568169933543 -0.035852730824679754 -0.06716641408104851 -0.092850006298852 0.06306317298755043 0.13836582041460677 -0.048506559765266105 0.0020055800332767866 0.05421903492419736 -0.055458829849009794
3462 0.007146765093412818 0.04928350706825747 -0.0030740989854003372 -0.07557478685256341 0.10824567878804957 0.06776528293693901 0.0357045634660211 0.021507996764362144 0.026482860028297448 -0.010923492876585337
463 -0.028839792729502923 0.057131999039641085 0.07319415127271203 -0.11511358023966083 0.041203093596085046 0.07674678545619557 0.03832356983804895 0.05663356304276736 0.023577002247668292 0.03463456405176568
7854 -0.00385140336755824 0.06367914822155814 0.011559465474831259 -0.10938122176649549 0.09867699848315283 0.0861986682351425 0.018129487902887757 -0.00862469705372891 0.042079183481619695 0.012512006578000242
7333 -0.041755004246058526 0.03636508208428658 -0.025017146473035434 -0.1122999621167359 0.09673365916746285 0.11778507981690188 -0.030859286461819537 -0.0024558612754951832 0.04103496599001074 -0.0315340325361575
7430 -0.026929955058402618 0.09046057372740329 -0.04961288688316766 -0.06144404636573837 0.15544625909555468 0.09407054394708057 -0.03675553746788056 -0.037694379173574086 0.01967904156519594 0.0008235947333603724
6010 -0.06725177841981923 0.010683973311428233 -0.036004840323425345 -0.07340726562530234 0.09539708138912494 0.11259792778122961 -0.04085470285633971 -0.03007741705664543 0.027547853047291654 -0.040733443225011844
4358 0.05778797879535704 0.008675329636955475 -0.04747634196288194 -0.24005704385388468 0.16241946116992076 0.1567291645174384 -0.05341400855609803 0.04367425077658407 0.007185383025353438 -0.06174094755328751
1589 -0.0069092508176836894 -0.058341206167477615 -0.051967020090997636 -0.15942813279218296 0.07391607730683254 0.08405126373535715 -0.03637839682155021 0.029143116330179436 0.025707717674582763 0.020987253745731013
5533 -0.0033535086913932376 -0.04863746235988139 -0.04874910700489735 -0.15294948639484332 0.08028770752768084 0.08476638128085026 -0.032246095086103745 0.016003935520227042 0.024837378565007125 0.015064505702887917
9069 -0.13431696253299083 -0.019923451976389863 0.0431998990906625 -0.11555625348827452 -0.027451517201155424 0.10989983651494034 -0.07482755447238615 0.022127200573808032 -0.010089876306000422 -0.0636600395476154
6043 -0.11747119594314741 -0.06916670348917485 -0.027995820117424564 -0.03615276086372718 0.026888374104402403 0.10590897616062092 -0.03181405131730244 -0.03623255008406951 0.02698782587955365 -0.06104177183294266
7690 -0.023662439604569485 0.06244106636477404 -0.06126534505371043 -0.07734758437903727 0.11494594102886077 0.10775152465680272 -0.045166034289169994 -0.02778282048279539 0.035629143891500265 -0.05019745588527543
4365 -0.0791284338449032 -0.059295041236768486 -0.0500010259644778 -0.08563468879599481 0.030101132040766313 0.07398066439646547 -0.056227521289502605 0.0077204616048036495 0.00884435573391408 -0.033080009486071885
17 0.1465516019381585 -0.005366155490474178 -0.07869683116995876 -0.15080054664861947 -0.06625836985610399 0.036600412287602704 0.15745009735340604 -0.10303252672743662 0.20545181058381753 -0.05149054698695975
34 0.14627073622907147 -0.021198967396526117 0.0049768167230094295 -0.05418125642861597 -0.1622911146465063 0.0683709798944949 0.12251127490303934 -0.007393364486975582 0.18025228971781035 -0.08107728932477175
642 0.21197452658429564 0.10590767441573967 -0.030863786254769935 -0.010078442982337135 -0.1698720665781525 -0.16459291107400786 0.17962029245784847 -0.1607674388265418 0.15573741560845641 -0.14128698561593303
439 0.14231142951718115 -0.012152871248267815 -0.03622926964087857 -0.0777922339919487 -0.01677646003494099 0.03883508579003829 0.15385448974727384 0.005353688890781429 0.1400728456415891 0.020821293574152803
2176 0.1256285761196548 0.0037842347280511723 -0.03725268507552519 -0.06372342995310591 -0.0016451463005169203 0.02861880470245697 0.12615644531332998 -0.0078171663208323 0.11063061110624242 0.014243701444593007
7458 0.12797990742556825 0.010849693325896106 -0.041608254635812164 -0.06548473271315275 0.008545736033448147 0.03276808915617972 0.12772036795493655 -0.01260664638568167 0.10971847088492796 0.014583975980728267
2151 0.13555920622575945 -0.013731804670052356 -0.047172127469843665 -0.09299705886920319 -0.006759020085792015 0.04189706604272241 0.13876447833981417 -0.0014445971341614558 0.13778618243169366 0.01952167610289135
7443 0.12894302926238835 -0.022772413221433942 -0.05259818083983396 -0.09032674088954705 -0.006359288877240222 0.03700493809599432 0.1242989436414236 -0.0021673681927334297 0.13097963453398 0.019653681094049365
8737 0.11218450739023059 -0.039305297441751395 -0.05521194433704787 -0.07266887237082435 -0.015440575844359681 0.03263198005138359 0.1074960472001525 -0.009836430998160874 0.1184729680005975 0.002628046390775523
570 0.04795037618034879 -0.028615320835863933 -0.029139391161705764 -0.020544205601472333 0.015479475485181839 0.023098870613712456 0.05971667285435347 -0.05174213216567318 0.05681489852086967 -0.01012220048025807
5005 0.05197692200417162 0.07750071230859139 0.0041185622322694486 0.033795237979137395 0.13599442792461824 0.020964743622060765 0.15190543763948613 -0.004301621748236113 -0.02606890977192162 0.1725872904042128
9198 0.024223983501397667 0.028078972383248448 0.006290705438207722 -0.005740670443031528 0.06143109363550785 0.00383313323799548 0.09686228641038505 0.02695757877090488 -0.017547864001467458 0.1407982103344541
7029 0.03126144794772374 0.02970467845448226 0.0056845028352614565 -0.0011294774409587086 0.06705897243009955 0.005285434449108453 0.0976444213313843 0.02218887859057571 -0.014834512974885824 0.13878356236744677
646 -0.06451702058278189 0.024409947611398107 0.010715111223743813 -0.16608686869989736 0.047811021605773864 0.07874495585162923 -0.019044687021092705 0.04191743729046747 0.01080577334681632 0.04062291371780531
4561 0.08543960377202774 -0.023047358449498068 -0.04392694375983287 -0.0730548886662815 -0.04143571978296143 0.008099946848731552 0.07233117588196371 -0.029813839995494584 0.09992005503410432 -0.00779572985911597
770 0.08479920637497354 -0.026728352913260756 -0.050567667344408554 -0.06986315140525481 -0.044891641811775525 0.004091719628244968 0.06473718287561711 -0.03167957699318406 0.09679567793785868 -0.011071567390808593
3122 0.07611165665930365 -0.03450726798892055 -0.05002416264108163 -0.06457005243826067 -0.04424099705646129 0.005496921390032873 0.05888539623986081 -0.038969904142345316 0.09034307865760309 -0.018285564364791715
6860 0.06755811231794359 -0.03926596874177033 -0.05814658434275368 -0.06392061054094164 -0.03520344265422834 0.011028636208049869 0.04124061640278823 -0.041135731542233094 0.08350128279997573 -0.01935072099906892
7105 0.059264275443532737 -0.04429722515693914 -0.05862223918698262 -0.05360146463269028 -0.043009554453224616 0.01103997272789717 0.0381507335152626 -0.04399945970299436 0.08044113896982318 -0.03158810595912908
8152 0.08430434101474402 -0.08336746962583985 -0.15733722378164977 -0.0835536648743966 -0.069351890698368 -0.08432639605666047 -0.08281503850612033 0.08369627606046341 0.043412248051135624 0.047716089989188436
6775 0.019203606522537244 -0.10113862411893886 -0.04676256443264985 -0.028613672025289433 -0.044611654385487 0.017982514788876174 0.045986578884341066 -0.07774045153715337 0.07581105357176351 -0.035084210404093166
973 0.0096055428544111 -0.04827742297819356 -0.04788243957335052 -0.004440846750551559 -0.01942633871551192 0.009759572475864663 0.023695617616416108 -0.09186817917705171 0.04467892066138772 -0.031129746485970868
7973 0.06834429839895163 -0.0002841831839132493 -0.04413984903461589 -0.06232305266351863 -0.0194674012336737 0.008529606554840793 0.05407831803756467 -0.038399700215558635 0.06960847273411946 -0.010012664771064012
597 0.04584178720868582 -0.028733165631446116 -0.05336976361609202 -0.04060301120835666 -0.027829303505340484 0.008598722945060793 0.029684018111876 -0.05326362287550106 0.05567835881036619 -0.03515206259316479
2518 0.05648481687261948 -0.021262431670236864 -0.051269395770085324 -0.04768846088710377 -0.03608392479547307 0.002992365822773097 0.03749282734532377 -0.035440296199862116 0.06171176286827304 -0.02280399303015108
7601 0.026942571059682098 -0.034443538884455074 -0.0474911340290757 -0.021325292301818236 -0.01906946557353695 0.00975804152503239 0.027566779148507903 -0.0692988180462098 0.04473841282778842 -0.03518391852213145
4761 -0.003576763710881955 -0.08324725343730553 -0.0274687334653412 -0.03654568889225616 -0.03390675669740077 -0.013969221694710208 0.04240638031888387 -0.10316074925621237 0.0686054746506852 -0.04678911832746739
3353 0.01251493546915745 -0.05800154740168013 -0.0465708740536537 -0.00022136099849626574 -0.019761471718251076 0.013328144507207495 0.03116153038782752 -0.10367571108242489 0.05315529574263261 -0.03241470297026539
18 0.03316292703022565 0.06074478484683753 0.03455583722839012 -0.017873764727400616 -0.014640404019248467 -0.008499356296221621 0.06260410009379454 0.001133906859477558 0.0033913981624104257 0.004222693969031717
2636 0.19353907641546103 0.10021751517482572 -0.011683356671121676 -0.021828016789943856 -0.167998895976283 -0.14381177813204737 0.1451134424063077 -0.15710943896331012 0.10472971247893592 -0.12248685138850962
2111 0.11771578071481496 0.09553779830988121 0.03585507211642908 0.029998268748315623 0.040081696802086376 -0.011456843537661979 0.14000175652893432 0.029506606818186894 0.03101760851270565 -0.1135875881858774
3624 0.09097015288091043 0.0982282918609331 0.1126979134339038 0.1107548475033584 0.029192844456200635 -0.006643150098117241 0.17225103295731828 0.09953655553012798 0.004505402980317663 -0.07093951279575647
6542 0.03310412275762634 0.10384490879572966 -0.00426456247722013 0.026506501337037542 0.02361432091541662 -0.028373804156359664 0.016566682572226314 -0.05918682684612813 -0.02136323742822737 -0.026516294814625398
4983 -0.05350998001235927 0.13402068034917422 0.12650257569608606 0.0044251147816828165 -0.050665216864219556 0.035432678690311865 0.023941283510110583 0.03945942152399987 -0.015402272778344786 -0.020915778692173356
638 0.050222913084644105 0.08515199284713457 0.02336391779272706 0.022555715280806396 0.033284910068930765 -0.0067821665268728995 0.04207581051703639 -0.01769701356078112 -0.028717502412577853 -0.02559626470242925
4724 0.030117227450052502 0.0736375827824969 0.01623000911343187 -0.000638754152124398 0.019199514130783933 -0.008677229644507718 0.05103581834768679 -0.017530515831697884 -0.005676325472606809 0.009897021580714805
3095 0.011578331414881996 0.03649931646229001 0.0017758994302065562 -0.007735860390125491 -0.0056877513621311614 -0.013339476864061547 0.030267991018437534 -0.002184347592546762 -0.012558225839678952 0.024028124109764782
6266 0.032743225942267244 0.07052264605371987 0.01998089723845754 -0.0032604558542198557 0.014193982845483285 -0.00753178196749271 0.05648760588323737 -0.012317850136389343 -0.001778218895693884 0.010584642771345253
655 0.02562025472095827 0.05427049250442232 -0.0006720980192728216 -0.005201397306030497 0.013303248934338293 -0.012434199737995866 0.03503033772633233 -0.02272329430109935 -0.009074927872405944 0.01388331953310411
6320 0.028698110401359046 0.03946536452528263 -0.010934656706079177 -0.008748830357877097 0.01150564780173979 -0.015835560047804002 0.016578256533709482 -0.026461819511954855 -0.005420993764079041 0.002540341226909542
1675 0.029695782327887374 0.03617807222874836 -0.012690896227064135 -0.006249397989137509 0.010442695024682685 -0.016822928409344764 0.015194237288013973 -0.029947852684632407 -0.002770364120144573 -0.0001583103979684416
208 0.008256078190227374 0.04899902995208754 -1.6370543163351997e-07 -0.014443252048728738 0.010839298500374501 -0.01405754376869079 0.008592593402646759 -0.01929704256170788 -0.019675365338024844 0.004527883478165183
1470 0.014285076460251483 0.05305503445566241 -0.02199889914081717 -0.00088881381985522 0.03249965300320951 -0.020792995105289192 -0.0032134977244027765 -0.03740500414053586 -0.0223985900254381 0.017030419622709365
1444 0.0011714113097013345 -0.07217424409442204 -0.016576105154395063 -0.052729403151210406 -0.017887772656125626 0.0029311320745059803 0.016450816747039004 0.053974918257062555 0.015365773492718945 0.07788643254875245
7640 -0.013351765584722057 -0.10987703143133266 -0.020207641693157505 -0.05566061128370767 -0.041502854277632055 0.0051437249363077515 0.008863039311206323 0.0707457779797107 0.020685190087443055 0.07779585094340202
3876 -0.013966472811780197 -0.08726918212778152 -0.009928401507955634 -0.017496024569981675 -0.005999894589838165 0.005819156461183769 0.0070971160665475545 0.006201264121278401 0.006296859447762703 0.048006354896700534
2163 -0.017319891577793036 -0.031790691048733624 -0.03760273213388199 0.006194164521808451 -0.0035033786941201686 0.015505574972560351 -0.019737085103257307 -0.030752804564464546 -0.0068156520805976355 -0.022354423237151883
349 0.005746861198050056 0.03259565274461974 0.009680431268188655 -0.12524699055244506 0.08548443567110794 0.08085021449691177 0.03524630365283524 0.011051944436116068 0.03782500916286164 0.036875758261209264
8895 0.015382965803350622 0.06180641812567579 0.04491014621797918 0.019776585634457555 0.018638714475267142 0.010022094141282608 0.036824569987918346 0.025578334221999198 0.0001697491590850522 0.019735645653245548
9084 -0.006301469543406659 0.07920364585644982 0.007804530932101949 -0.12807097578808913 0.13406721014125825 0.07402423785963452 0.005769107926104715 -0.010976817123267668 0.008054899243364935 0.048988039534925004
23 -0.05827673999003159 -0.027719975396197773 -0.0238999320542398 -0.05816133583893527 -0.030148559426809926 0.0489114684522662 -0.029062197824254978 0.021707839346189625 -0.008350496083540961 -0.025420317547155874
25 -0.05775564122911577 -0.034142420133197404 -0.02269049546168707 -0.0608999856210155 -0.03337143572457463 0.05442482684982044 -0.01693813680342985 0.035321038055494844 -0.0015445332715601195 -0.011429131637552891
2115 -0.1315853520860958 -0.08052454238989191 -0.06356408348225784 -0.0029483728209539553 -0.07831287279687817 0.05987989762797601 -0.06497393625964375 0.011467771080667218 -0.01928959040525359 -0.06224034240339042
8852 -0.01759846943512234 0.026371761591999963 -0.05801694120844255 -0.021682154026927327 0.014305056626705616 0.032676283856040204 -0.034906573043475005 -0.028948698993247875 -0.0028769612602695276 -0.036404779432431526
2335 -0.04423795422128254 -0.007837759211767076 -0.02165962012747364 -0.03678573830396587 -0.004006860292927411 0.02637418621849961 -0.03149946947703561 -0.0041766731914511055 -0.02098836614030639 -0.01791157411515557
24 0.0480306017989303 0.007783773502461073 -0.016123481691434616 -0.05579247936888007 0.03287673715662904 0.04632797794447148 0.06969022532028328 0.012745612775464021 0.042190270983382315 0.023728092798145226
6233 -0.07012019404956257 0.05075684072417057 0.04125908752751662 -0.09824471374875836 -0.01449091168167784 0.09984175095783397 -0.004177619776642039 0.06811610841324223 0.03133931209202036 -0.02305064704317029
6050 -0.06872925301188142 0.0489187063676815 0.04298638828485881 -0.09774965051314473 -0.023695704149746838 0.09571060632476186 -0.006800176596130547 0.06674463449375115 0.03114115840450295 -0.022825813701158087
1780 0.06194424981181448 0.04198993420768795 0.09743738050140242 0.013933776153731859 0.009668509148042514 0.03613849204321539 0.10357153956974889 0.08268184343696901 0.01429320326117604 -0.08607785506540395
615 0.05812269814720227 -0.060100206728797456 -0.0352019026840957 -0.04612822379718068 0.018940701360483 0.018210355298039285 0.06766576743071961 0.04639981779597101 0.04414945082432589 0.07977269893229877
8277 0.08086286757665162 0.03522198083607649 0.022661534414243432 0.06494872207342754 -0.008347833386245954 0.042116916577048136 0.1422137328040595 0.07970626050910255 0.08284339734148545 0.030668928291152784
27 0.03694745529248573 -0.076667209232924 -0.03587224942322362 -0.05585450220411596 -0.04761992060173072 0.040955728406481894 0.03181710005903041 0.025585122253603102 0.07505432186340018 -0.014407331070305826
4398 0.06120871566792121 0.05177195508647966 0.029638399507185515 -0.04135529924070604 -0.06621111801537692 0.03521656057141739 0.022421858737474 0.03474427273417422 0.010894339745125579 -0.15001209916507183
3363 0.03501970367386278 -0.013118273252164601 -0.04600577900370415 -0.03022480705040719 -0.017808298690013123 0.015961899134337747 0.011408780967330738 0.010560288468544066 0.039442928342494105 -0.006842237003557463
5922 0.03182289314741109 -0.012471744273781364 -0.04703717685124763 -0.015636164084921314 0.0020678867744090895 0.011903467731905419 -0.0020588435729639995 -0.02497854750101275 0.030144619404762565 -0.020176769716757078
28 0.0011059077157774847 0.026444548426676973 -0.006460957145611138 -0.1100303220957717 0.08124194260096819 0.0707243973970048 0.010059477865086494 -0.008986940151939514 0.02972623969057917 0.008642266782414702
33 0.002963436423697648 0.03826508106460275 0.01374395358191509 -0.11947766092368026 0.07903065136716583 0.07593077679991247 0.03439574287364207 0.008855449858811757 0.03493911034879209 0.023027540708852927
4130 -0.002140945540330653 0.01593381001809184 0.007098371802817727 -0.13940094804770384 0.07882263249346631 0.09017583685810585 0.031357463737359724 0.012630154270846563 0.049733682896018844 0.019731873961984888
2260 -0.005697467745085897 0.015422931525875705 -0.016552529483140857 -0.11183759437802608 0.06779134262942217 0.07976624756349408 0.013985920143721313 -0.004232858853987981 0.04806502225530306 -0.0025455537656702536
7228 0.019200051095872032 0.04955004426754831 -0.02824458640804346 -0.026874238379206477 0.06615749788170817 0.019708863731786038 -0.003914745284682362 -0.04279133874458454 -0.0033486835690325106 0.00735265268377028
1122 0.0028205508807491444 0.039538662087134066 -0.013886538025289072 -0.07698952008052072 0.07849492176458929 0.04762411462773512 -0.00010145790609473413 -0.025949310301158362 0.010690638656309903 0.006722464174945962
29 0.02146049046552266 -0.025942347727063296 -0.04509861190781562 -0.026745167023837495 -0.047718657869692316 0.022347471879564863 -0.00842003607202364 0.020218104615431103 0.014891013204177406 -0.03865212313120861
3313 -0.08599152435334464 -0.06506856194846841 -0.07935496199084419 -0.03498580017476682 -0.11198284019947136 0.006393389544443613 -0.058158605196215525 0.06578276467816446 -0.025760499068893095 -0.022162177877502402
6029 0.035277833417752286 0.011805004611845245 0.008510444156856912 -0.010591444001093945 -0.06048036534260819 0.011006965563585063 0.023316779941174277 0.053713507400525336 0.013630744100300579 -0.14127193790290532
4660 0.03410960199877692 0.06888234501788328 0.04502611138904927 0.0552277019626892 -0.05694949221717018 0.024096391211826135 0.0025559552840142834 -0.047621784158460016 -0.013788911558936624 0.0022398726800738427
3586 0.01039189061690891 -0.0010876700143893105 -0.04430499581396545 -0.02430858980666932 -0.004332413095575521 0.010692673785466017 -0.010049634166878062 -0.006258323355718182 -0.0033188280466456164 -0.02416027165059566
4691 -0.003402801490791523 -0.026755163625508206 -0.039883636105601285 -0.012454257077868812 -0.026665301191878845 0.012523808633537352 -0.02631518138343594 -0.005310717624659833 -0.00992682886180231 -0.024103239899131497
5943 -0.002053881048473207 -0.008872336428270306 -0.048401947207560976 -0.016507471153669483 -0.0007789644736696741 0.009562937165350949 -0.02913687699005153 -0.013676837515497958 -0.01316965307756789 -0.03216399199713824
30 0.021736586937715623 -0.0739033398899849 -0.03216947974169283 -0.06896111282315034 -0.02861591579445022 -0.00514940858292968 -0.004659434279176877 0.08097336849476489 0.03098962516569916 0.060944267486250585
653 0.07183059451994765 -0.11998782387959811 -0.06634269799480784 0.01130472978752648 0.004236469774250363 -0.12101742561063286 -0.2391370485470984 0.1434925305363855 0.1077907803367641 0.10117289950221295
2471 0.09525735152958673 -0.10181393291373034 -0.08587089426890215 -0.00425527398261572 0.00591316960717275 -0.08289539989646726 -0.16569608650977377 0.13748686948981986 0.09173990567668465 0.09809497630402664
31 0.013473188360157186 0.06281266024951176 -0.0031686400420816705 -0.004800396052238929 -0.050725152405184895 -0.0337483116798199 0.0410906179382634 -0.05122363853362563 0.0008158213599946378 0.006231585722820175
2486 0.0510793120578795 0.058586746043710156 -0.016319867829666913 -0.13389380559824074 -0.09766517961656089 -0.12365786697643666 0.06049497399296622 -0.10325731469605896 0.058835544943841314 -0.05008150318217584
8843 0.04606261644718699 0.10503445628811994 0.14941144561946781 0.0712289120137508 0.0017700541990264618 -0.00915016601903663 0.06307420610060016 0.10184858152754137 -0.05745656468581483 -0.14871665151574504
9043 0.02840016433828696 0.04415059962106347 -0.025161169587159644 -0.0002166820368711963 -0.018946298928003837 -0.03786709541779288 -0.008311065297857056 -0.07078953934143448 -0.028552693628507025 0.0010661561967881738
9007 -0.005189645374411089 0.06640577777481259 -0.0065913629092681295 0.0060306219024812684 -0.04018240505592947 -0.034123224486850755 0.011164941786802223 -0.04364022294012526 -0.023855162702013755 0.006951388554708609
4128 -0.003632913885139289 0.058667919019909115 -0.01780850682397754 0.0035803380991728355 -0.029163730099864022 -0.03871533147270077 -0.0015229428296525838 -0.05074638113709141 -0.02505245019907721 0.007691237480926936
1198 0.010556370175093723 0.04478934387226194 -0.02815225385901103 -0.0011549499226345304 -0.02845603006817218 -0.03478468375980853 0.004915254207904351 -0.06100567215469643 -0.005063180812573368 0.0006584502865015551
4360 0.02906698580548247 0.0599387430573988 -0.024495182213817458 -0.0003694825113164672 -0.019842526748675735 -0.04106789403615852 0.037709484530147865 -0.04138068285816581 -0.0053146209634751486 0.005850595270381554
5513 0.0018945840729296848 0.05201736079080271 -0.026457629532886405 -0.0005291129052511843 -0.028431826971505366 -0.037930785897957134 0.0018323667182040659 -0.055555016479579646 -0.019090161563717175 0.008331731483112418
4405 0.0015754034258294988 0.04109250920887343 -0.028587715181668708 0.003333286949432427 -0.028392472205378924 -0.03523710176693556 -0.0012404748810041135 -0.05841444202450982 -0.012745041722306526 -0.0011370833612127278
5128 0.002387512180739856 0.039311261381100304 -0.02674482360146028 -0.0019050479467640877 -0.0350002823486735 -0.03658961249220788 0.006974327918212986 -0.058732715316247776 -0.005843751057677044 -0.00563950284788749
4750 0.001272816028039166 0.03807089184921494 -0.034981168106706144 0.0057130779593608004 -0.024421034051262478 -0.03561474690502188 -0.006912734600909012 -0.06410095042081104 -0.01471680826535215 -0.002298153265789481
8450 0.004841579394050346 0.03925787856616361 -0.0350701220625484 0.0059815011146351045 -0.0229571651318365 -0.03808024669902412 -0.007419538058836247 -0.06436288547662071 -0.014887727649703322 -0.0023357561502628825
6472 0.006765914372691024 0.04210145461876401 -0.03543624191702675 0.0055132466517862026 -0.017076127300992155 -0.03541520400492072 -0.009127083757544464 -0.0667273279319082 -0.016911188453965154 9.472962555342593e-05
1506 -0.003399271322285532 0.0446157250966221 -0.02599175735540727 0.0053476124031877495 -0.027246774753820622 -0.031168214586814333 -0.006016000126376352 -0.05742515355972913 -0.01851402698991055 -0.0018252049025899361
1658 -0.004507071628331771 0.047385920452650956 -0.02649005043905475 0.005389500198270692 -0.01967757833106301 -0.03662394286671356 -0.013454179617012436 -0.05588035198693039 -0.02308847582066035 0.004574898843220162
1405 -0.003936527441971463 0.037585073367058006 -0.031058705161836328 0.002418175594070159 -0.020315975636535488 -0.03494106360770694 -0.013272324327360856 -0.04835681348280071 -0.022740580117814723 0.007018946510778922
3179 0.003834304649817482 0.039431749561172985 -0.04032339496205268 0.006713105716049497 -0.014338841340837948 -0.04627608200946479 -0.011456094617420408 -0.06817493276874131 -0.017485613848452538 -0.0035865269291125517
7901 0.0066078770199999096 0.0438867498491712 -0.0340938998769665 0.007864067152480864 -0.015907480356666857 -0.04149223991124671 -0.011960051245623217 -0.06780653081933134 -0.01855486670820183 -0.004255173279048704
3576 0.0008430572527508781 0.03376207260699821 -0.03819014354815555 0.015927789490548634 -0.00560808000607118 -0.03813154814151971 -0.015978615846309763 -0.07689395686928457 -0.01851401167387949 -0.005443880278144011
2248 -0.005712099997470788 0.03727517767248024 -0.03356337613553922 0.00942113088242366 -0.013770883867357902 -0.03518606889066514 -0.017848629349472556 -0.06285759732975661 -0.02246915283467171 0.0034807765673277873
4167 -0.017363617355284067 0.020298598232671633 -0.027400308746153387 0.005549895828159328 -0.021025119478471088 -0.023599922039936806 -0.014514710317591611 -0.05787910593329326 -0.020975126343235232 0.0008767591663617906
4991 -0.0043791059054657236 0.029820086195441645 -0.03314466175337012 0.012367144704773413 -0.016129879467252223 -0.033297350573353285 -0.006771343398541 -0.07501070166301249 -0.013535968849291083 -0.0071339991258794495
6706 -0.011037591768297658 0.023080126582621263 -0.02894859079428219 0.016626063485100165 -0.008110941220069152 -0.027564489210077512 -0.015342419197572914 -0.07025976683554357 -0.021244113715336126 -0.001885654571739114
1300 -0.019734866717380884 0.019355356992473382 -0.02466485577678176 0.023978829916451536 0.0003122865100635221 -0.03077046579183153 -0.02289181640882809 -0.0803583554734436 -0.02836700136154889 -0.003394459926127646
484 -0.028778566966103817 0.02689855589794199 -0.014641039221431926 0.0124023932150268 -0.022674677038713103 -0.019568859381305335 -0.01378006572577565 -0.06145778255703095 -0.03378124458569683 -0.009755145534252743
7378 -0.03330961783887133 0.026278142537657954 -0.018576948265558377 0.012776683018938938 -0.009272927010179611 -0.013200674672581278 -0.01756870329071878 -0.07319090984680521 -0.031178249001183166 -0.012686416789653937
5634 -0.03317892580299155 0.024939913497095685 -0.02345387516878165 0.01938350127685827 -0.0013091488331761103 -0.009651242151543164 -0.01988827453454552 -0.07338848176181297 -0.026774454002869704 -0.016492253963323846
5064 -0.02752594562865999 0.021551322961226974 -0.029718574128924563 0.024430683858790252 0.009880592383352434 -0.011484547423759274 -0.02274084424066239 -0.08048950680807078 -0.02574194953034973 -0.01301644252699343
4364 -0.006712632934754359 0.05061403222096994 -0.01819970363397245 0.016117733522805756 -0.03329366903939832 0.007865352970193348 -0.03349580181322491 -0.0983640298252835 -0.00599439223553503 0.01740181521437424
754 -0.023700227114615523 0.04270063167197586 -0.018943582204496576 0.02551503146914237 0.027479183050907054 0.005121075472568593 -0.02086916871354909 -0.07347181898063837 -0.007360511649285182 -0.019743113822408773
7125 0.006853854237585173 0.04909530993674376 0.0011035974622924652 0.012256735492417637 -0.0434128680176951 -0.009387833191992418 -0.010346389602809326 -0.07177191232708072 -0.03652783137524416 -0.0029089301618339222
7627 -0.0008555213480405881 0.020206054746311403 -0.016157911263379943 -0.002931998750710708 -0.040713905145868014 -0.030033801419868115 0.012308631775247318 -0.01921189191044732 -0.006336915896733247 -0.004871971062389429
3605 -0.024688311897249578 0.0025820480323534055 -0.002895374191902577 0.017266146400037305 -0.022368218196150747 -0.00047831171640920906 0.005761823105886728 -0.04506187494368518 -0.001198411097876633 -0.01314476172600897
7318 -0.020559219175376113 0.01840163524040882 -0.01613928262751096 0.016423891127418277 -0.013317928621943352 -0.014512302346412792 -0.004980733270222307 -0.06204051107244988 -0.006593082290767115 -0.018591540570311076
4254 -0.0033938113839414395 0.01587719670810793 -0.014193052318526392 0.021942150592034988 -0.011148238584309113 -0.016122075198298846 0.004128702094082948 -0.06491545058826978 0.009302376150967887 -0.01667538499895748
4356 -0.00336908050730486 0.0166180674482117 -0.007234740814296033 0.01962216851300498 -0.005920073269806958 -0.01596244567931237 0.0017351728511074234 -0.05796538240250358 0.008859834991392925 -0.009939019380948225
8598 0.012245766098076117 -0.007229008813038421 0.009373103049638086 -0.08674403950717183 0.023065355950970576 0.049325983011199837 0.06339023336988175 0.05556327649528456 0.030002048374193267 0.06626761025882771
37 0.0015040990395615828 0.03630090908807755 0.00055897246198428 -0.11570812893675095 0.07677921800224559 0.06904820674159184 0.028731756259497924 0.009035486292263839 0.030297260295660603 0.020799376992581324
8841 0.002297750325149273 0.04328788725534303 -0.012922971311643834 -0.08070104707002677 0.07643271662337738 0.03866228916428395 0.0029188789092941137 -0.026626072816822992 0.011439360676231605 0.006011139267868186
272 0.12376489452418063 0.02028347496647446 -0.03762370776775879 -0.02696343725507368 -0.10494177965236594 0.01997549024310242 0.07351422477252958 -0.05148104402708869 0.07783574842479306 -0.0452752978651968
8817 0.11447344330415408 0.030464600943993652 -0.039847000698572894 -0.02570573757923931 -0.09669853793982092 0.02700274902078738 0.06898363087262592 -0.05344978470049256 0.06917709686623012 -0.04612894644228849
7289 0.11821799732218531 0.030269524947444452 -0.042456032719332945 -0.02593397442046907 -0.09050537838671284 0.02039718354531504 0.06282566559032783 -0.0645501466237543 0.07124496343482732 -0.04740205780807504
1957 0.12081892401787757 0.02481730286533984 -0.037124798195465374 -0.028917458809519684 -0.10307160887479362 0.03206219920054156 0.07685667155755618 -0.05151477926201671 0.0741909753560324 -0.04700405794660043
2828 0.05435593747187636 0.08778380596577062 0.08671032970219394 0.013663882995648543 -0.14517283413047866 0.045568064663636824 0.11830452049046834 0.043604617091819925 0.026922297507722126 0.023140411229497625
5734 0.11004375722831454 0.028695206922415874 -0.030668623855635353 -0.0302149774528071 -0.10110190427633563 0.03475211499661616 0.07501939424042633 -0.0464563663686713 0.07212424475354651 -0.04737111363994869
1906 0.11999072533097216 0.024977479693166764 -0.041234621740311374 -0.019713322969231624 -0.09207023470975341 0.02723844922391024 0.06780082901962753 -0.05417664564971235 0.07296172567813675 -0.04562987237038871
2162 0.10147143894220119 0.03550165885666082 -0.04841859853028326 -0.0165186239449313 -0.0728626147275321 0.013871873327368632 0.0456840663817944 -0.06883878498780684 0.04995353446722278 -0.04170379828966405
5349 0.10484128498300233 0.03560961529180778 -0.04291325754555862 -0.018822778667927365 -0.07906029848964206 0.018666706242401594 0.05009075696020917 -0.06062022946346502 0.051690572496205234 -0.04187266588966819
6503 0.10658868657369697 0.03696966762020741 -0.044453551447464365 -0.016680265220918235 -0.0792392254758947 0.0173167610143875 0.051253904207560055 -0.06656034359004595 0.05425329506988163 -0.04352727204731338
8725 0.10535679145468949 0.038915396976144975 -0.041440231041290715 -0.012734099605083895 -0.07709616118719484 0.021651427424731334 0.0515710467188372 -0.0626862901710084 0.052556933061062835 -0.04084875254297605
5783 0.10492339945042779 0.040463018161451 -0.044867788179841016 -0.0218960889714998 -0.07808586477055504 0.021364220142987167 0.053950606925970236 -0.0670313610885512 0.055532263716379704 -0.04699595725763822
2639 0.1066666988312828 0.04937114252803557 -0.04096698090906145 -0.016450881451166192 -0.0783330464192652 0.02225046697487113 0.057153827041591956 -0.058715164545895725 0.05396680694379809 -0.03874447240914547
4066 0.11237167388463204 0.04744269417861785 -0.04339729985752471 -0.01859858108264171 -0.08789934840652783 0.018889423062855005 0.06216031435731733 -0.06992798707570252 0.06019424202190816 -0.0496360976341841
1442 0.10378220997143175 0.05107666591851536 -0.04184253318616909 -0.014123449251725678 -0.07048366258383264 0.02190765708873916 0.05270314635293779 -0.07019035631900664 0.047975359713343144 -0.04284221571655969
1479 0.10556609565636044 0.04094660609927867 -0.039907510471764475 -0.020496618548804104 -0.08100020428982009 0.026888741270815548 0.05721867051751678 -0.06300211494258934 0.05187743461443549 -0.049163495300406694
5841 0.12304435289302892 -0.012513573880166523 -0.054294407017704625 -0.031970624243506086 -0.13645773437203676 0.037465566052818235 0.07528673374458712 -0.0434702988379921 0.09239843283584467 -0.05623709731710538
5566 0.07929444218424538 -0.005163788420347295 -0.018506340399395117 -0.03427617424824792 -0.08794296566895946 0.02682454987687338 0.06699592968082853 -0.018185012014821676 0.05574517401816817 -0.034405164878513014
406 0.09921990867814441 0.008899106141337959 -0.05666534147303332 -0.025600585320470503 -0.08563792934701117 0.024617022966884557 0.03985502040731144 -0.059523007328285214 0.058516106774505854 -0.05017725952231975
5383 0.086469869986051 0.016254870854746736 -0.051148476416880626 -0.016554280296943003 -0.05156788893363529 0.01700251771262537 0.02632896684816073 -0.06900202436671156 0.03970486735899193 -0.040142454944572664
2757 0.09418165351286022 -0.03568722025067164 -0.06312744486014477 -0.024607832411271163 -0.12252689630871472 0.04733219961732838 0.05838751308842842 -0.07115613378022749 0.08403479532930824 -0.06776704842661582
6373 0.08441900850550171 -0.0012458492216168638 -0.06378387838831627 -0.015004115711336632 -0.08503220634233044 0.035831299409706356 0.04138072966043771 -0.07255258093758823 0.06091409382552427 -0.06141796927531598
3742 0.0763855121528235 -0.013505618741255956 -0.040379397543749425 -0.01606912985971923 -0.06509112666076351 0.027247496689541097 0.03607213360396558 -0.060797651824276114 0.05825870484105172 -0.04533769675448714
8816 0.0834350562217014 0.012052308242296958 -0.05883329513819813 -0.007516805214578743 -0.06456658997020678 0.02498098540200023 0.03535880902031732 -0.0817942674023874 0.04797720712492082 -0.053501632165137515
1805 0.07550320471835427 -0.0344956052222183 -0.05549984286134007 -0.011639848000448259 -0.09098508536162367 0.03923823791708891 0.03991746446547953 -0.08450038169706167 0.05805440278645771 -0.06615429210365453
9122 0.052912678430460304 -0.029319569322930325 -0.05567665809625963 0.010721353913863862 -0.077764675682955 0.03763769036692209 0.037108549179946985 -0.10228230027742949 0.05246832530693368 -0.056825172493854784
7831 0.05720018082259868 -0.0416820217010609 -0.042500446144170013 -0.00842897067739421 -0.07107202055454026 0.03875866290910511 0.03722695561267403 -0.07803432027541808 0.06379140679792175 -0.05474506779532565
3854 0.12979853969454908 0.01793420686339118 -0.06757385552034825 -0.009979659485694374 -0.11031312340792644 -0.006959706264102862 0.08503887150639515 -0.0951034007422005 0.09578375145458753 -0.0733576736392728
1265 0.12297129039188304 0.024445315767785573 -0.04725675177212882 -0.024023981581395206 -0.09878936996453655 0.019583176520563173 0.06295948784575696 -0.06347406373623599 0.07046220866626801 -0.04358481239100412
4930 0.09669930689851476 0.029092046410188692 -0.05432186331619673 -0.020237658414926005 -0.06504908379938605 0.017585587771371487 0.03565487526915795 -0.07209146478854919 0.04290221317693541 -0.046743795282422396
6403 0.0876984464739221 -0.012317725798798489 -0.060812741859316254 -0.02379169735236986 -0.10060971292237493 0.03600840326095215 0.0479677181235488 -0.06462912963625016 0.06245518305262927 -0.060488085209740756
4215 0.07227689830112835 -0.018171317356823334 -0.056743091020302956 -0.013762509351732233 -0.08640134113277945 0.0345177689902036 0.03726994793286896 -0.07309593985158433 0.050072582284560824 -0.05958556069188877
2224 0.06431412336024202 -0.021729068373610293 -0.05559280502837367 -0.004696157011824062 -0.06844949064577717 0.041048798276877435 0.034534701814350456 -0.09368683726319324 0.04646635248717321 -0.0619900515494061
3984 0.05133028655328167 -0.025686529960003292 -0.037660388254937935 0.0006977899310276651 -0.04654498678659461 0.01807212467256203 0.025223752875837432 -0.07861830538451031 0.046279607993405684 -0.036497690690606044
5842 0.04597235264842568 -0.041117316250101545 -0.03709403167414249 0.0024612363955563675 -0.07228219401551246 0.029109357167130978 0.03921532932218228 -0.06776777962668692 0.05025678853701921 -0.044978108411051765
3426 0.11767902724964745 0.02948334676095345 -0.04870461019210047 -0.022665534681020713 -0.09076576121877995 0.021861706898548855 0.06045255366824023 -0.05891102247522912 0.0650028555909402 -0.03537319104097076
3476 0.04952011990402474 0.008380182272819447 -0.0542044721262696 0.014796217492317713 -0.028902884727130214 0.011679282609379428 0.013926287523732749 -0.08399397262173881 0.012139966078781478 -0.035304325361550225
3375 0.04485085566759235 -0.0120337569068165 -0.037090856876959476 0.0060963992848747876 -0.04875096895163653 0.013873728113765083 0.02123809632366562 -0.07365027037808902 0.034560823064052136 -0.03422662555482609
35 -0.013393352714278696 0.052976255292828324 0.004051088940483505 -0.07690506538044725 0.015924970076764147 0.03152338579229121 0.009576272489403214 -0.001667723600698741 -0.0045022812830610385 0.0003861049381614575
353 0.030176514152135753 0.051825531743002785 -0.016416182740499337 -0.05101618773373143 -0.01123769480144946 -0.016748174759845892 0.04332327335672175 -0.03799933513711319 0.021138576479018196 -0.014459813750130064
4338 0.0022875416735823545 0.08477467444900257 0.003933855375831695 -0.032392716637034406 0.048468534925093926 0.005829866003966554 0.00561736278006776 -0.03528603520085925 -0.020668334220981213 0.00028855289964499443
5582 -0.0024631725254095527 0.07370133444682557 0.0085083386706535 -0.04419156912967982 0.03866068224633389 0.011301086652614348 0.003969282277983279 -0.029743303749430388 -0.018820629977947666 0.000420135535801841
2368 -0.009406882150581278 0.04717997839878986 -0.03453023830040935 -0.03239575111178269 0.02074605809176378 0.0036705639659388614 -0.01995088633878061 -0.03566529307155779 -0.023519119676428227 -0.013526735674635847
1940 -0.02524812275041302 0.014802798908545255 -0.011399351810421988 -0.013009126712030469 -0.012108029749500504 0.005110208369493864 -0.0014547163467455283 -0.015288576442573138 -0.008436743477447361 -0.012284338434666706
7482 -0.005928595504621344 0.009237140446286825 -0.012906593695488317 -0.0033982678698275485 0.008645996936033285 -0.011604883843094382 -0.009897406009395697 -0.034731294396547645 -0.014216174652970462 -0.012332401861972458
36 0.0623612093278272 -0.0033950149104075723 -0.017711535338920132 -0.05023031871954547 0.014985061093844414 0.038250313041023054 0.07018138014851721 0.017758380314987048 0.05806481824025039 0.04474444962468875
8822 0.10144469162834038 0.12049063441701499 0.10698790223066314 0.19878305424245157 0.025291761622164635 0.03735518601010191 0.16470516681605538 0.1799099272988563 0.03203606515137193 -0.0011494520904302642
1896 0.05935074172243626 0.020961972825021113 -0.031533106686264314 -0.026999530533634006 0.01741387329179354 0.017870855906692167 0.05038177295270629 -0.01089635090015192 0.035662577062057214 0.029973528504181484
6852 0.04636368298348473 -0.008744777105116024 -0.04621700754921435 -0.04256715515269941 0.003191590744913621 0.018822009119809552 0.027669466642710715 -0.006174903568452162 0.03496773742970671 0.01768928356789535
5730 0.037501471951814816 0.014467088648503731 -0.019553117514904347 -0.1170738592851443 0.010804602333823481 0.02065580770736795 0.06398722149403795 -0.02090395184703799 0.06511712420163475 -0.007396561239202053
6058 0.041585798970894663 0.05491734727192579 -0.00806865808314054 -0.10544172982988465 0.04821093390313081 0.025001878879741844 0.07231369230091765 -0.023656866161828292 0.05309793202062894 0.007458371615976377
4917 0.0400370568443646 0.06005383581629173 -0.005936611087422383 -0.10935966762267588 0.04858480860763361 0.028433536856934796 0.07267447711821089 -0.02209080103685329 0.05351171553043891 0.008302674832859937
2179 0.04457189866463866 0.05682431078342964 0.0005109075264811152 -0.09710359262142533 0.04598534862103842 0.0242326005752991 0.0812230250364565 -0.01687086716518958 0.0545443523280177 0.0059678703643741135
5122 0.039144401110321615 0.05992691480375805 -0.005419836384126333 -0.10720405631170514 0.051108542093989226 0.0284522775518207 0.07197691259049796 -0.023249488635048044 0.05152873169453614 0.010139408044702758
7847 0.037707840533293034 0.034723138366164405 -0.032443218987305976 -0.07806125779143538 0.03612555559240959 0.007370845267897507 0.032537107921563134 -0.04243699188338095 0.036333453658847 -0.0011683838862066196
7769 0.0009494024495027465 0.03043865900666777 -0.03113026967530437 -0.04554310517564699 0.04230247394068079 0.009276348688989312 -0.0012443460759104816 -0.05260092841002817 -0.0005545270168274097 -0.010008463959629224
39 0.03857541363528378 -0.003813031685298509 -0.051957992667781325 -0.045456670153443235 0.007134308605709267 -0.02137528371679624 -0.0023534602759026657 0.042856518405220485 -0.0067288739631201945 0.07294944911333161
80 -0.12598098403534433 0.014189867152764199 -0.14260822217578675 -0.10669385330919239 -0.09043645750646818 -0.0842747086822201 -0.019318197600781035 0.1152761026762001 -0.13460298062685663 0.23338505696483514
7438 0.14708974053251656 -0.02896146162630089 -0.10853627733635149 -0.013764005200600678 0.046597399190729444 -0.03271808951543707 0.03312285615549165 0.046817897448550444 0.0861930674097529 0.13542625155633536
193 0.07420114959977432 -0.04699932526581564 -0.03951964346854493 -0.020463760596958584 0.005066980862138136 -0.040717850134077194 -0.10099108626047533 0.05523880354678884 0.09901755302628916 0.0800161853112536
4029 0.08492825050505039 -0.07286260610884364 -0.06819359904292856 -0.022472146333066143 -0.002203697868824746 -0.057482942642964045 -0.08433467296498541 0.08948507654988114 0.06691619580086201 0.09122678130901908
6837 -0.018150521724594682 0.03195114583654572 0.008990735288757035 -0.046402477196593045 -0.01313966176435727 0.023953026860855587 0.006191356014182589 0.026491900591545933 -0.012267307476722231 0.023055101585631853
41 0.01050506489659141 0.021795284713668903 0.01451283522067544 -0.07609381439222394 0.0009781757413884898 0.0474984076180557 0.04689862164112677 0.03969741258728179 0.029678406612156417 0.03710517297199617
3896 -0.004291983751727356 0.06992238630716752 -0.0030604514666861646 -0.022814170779986032 0.014672597897862641 0.014459923177294 0.021789741198950014 0.016418423968830153 -0.01957591960843117 0.05171133930465016
42 -0.0031144970138909924 -0.11564111366342752 -0.036105702639944164 -0.03190946899158073 -0.047887749516583804 -0.0045266810648268195 -0.01646243301088892 0.023726306745339504 0.040418649049494854 0.026815497942248658
2615 -0.044151650304790485 -0.18528600454199798 -0.05947070411194385 0.055136185341504586 -0.01239819278244707 -0.006248695352897861 -0.021907270860698512 -0.05383969006267738 0.0011426362187413744 0.008619425241756438
7215 -0.16649952820733055 -0.2299910620178702 -0.054301374078128184 0.1611712647364402 -0.012630154636508302 0.002011750295338426 -0.09639203466035424 -0.12567244215211068 0.048067530898175476 0.010860603979418718
3523 -0.03357987935477968 -0.19933936507247885 -0.010235194020793403 0.04340062993867257 0.02330136393980684 -0.020221714371325635 -0.00847180558168455 -0.12263716734263846 0.058005801380022176 0.04488581561005893
4149 0.081954649594782 -0.15590233479522042 0.004697849975667697 0.05724172954759671 0.05227266142769616 -0.07503981873150746 -0.18161250136710402 0.022215411488857976 0.1785096367391438 0.10686205009334862
3801 0.014620988558943974 -0.04915520263896981 -0.05253342154947059 -0.005124898465494364 -0.00046306193201919827 -0.027483375675021987 -0.04237715859831228 -0.01246754155527178 0.00623636956712499 0.01280012519911504
5656 -0.00010119653694467016 -0.07389666930505875 -0.05167958573693257 -0.014017039536292 -0.026284119180821564 -0.020797277307419683 -0.03298509990569722 0.008598162958474435 0.01611453621334279 0.013894029484923793
1171 -0.024315685311940356 -0.07245096942311081 -0.03189804222081338 0.03344505358725087 0.009981651296000895 -0.004946715580584693 -0.0167891763005073 -0.06620380113408451 -0.00272559544174002 0.003161758879560172
3810 -0.014743794935362715 0.062395727341301145 0.04922148350201178 -0.044660239341221215 -0.009093619251012009 0.03450434214176033 0.02267027783497723 0.0367134414489179 -0.0069530373858529785 0.030552393907792602
564 -0.015621464948758915 -0.0031683857172602357 0.005323150475784994 -0.004373058955587495 0.008963026402296624 0.00868878567973071 -0.008624971229409925 -0.009064481793479075 -0.0026924821081148447 0.014181635564093678
3101 -0.06887959316585107 -0.03842799242663632 -0.05023506129674553 -0.09159264395471309 0.053753897832543585 0.10542060065676272 -0.034794424888625906 -0.028723091455812522 0.035811690089623725 -0.03878195784255066
706 -0.03565683061158872 -0.08297185065620269 -0.04597766504204697 -0.09960863790220331 0.0019718767129190203 0.06461425730076208 -0.017455830556770302 0.014607970422736209 0.04093955005023465 -0.0020387232731566528
8715 -0.19648268303224012 -0.11046421864578246 -0.07058128630505471 0.03393840974049402 -0.04467486591222473 0.11246892507127909 -0.035661156646740966 -0.06399442927994599 0.021372648129777592 -0.1033590209498547
4535 -0.16242779141804753 -0.22698200561169599 -0.07289620286713483 0.038415373613328516 0.007954810881270544 0.130943024456794 -0.0043558263230282805 -0.11801831594164738 0.06090257728357117 -0.06896337809071429
4049 -0.0595177527316323 0.05264789581369661 -0.049081627843255274 -0.055933528327355604 0.09042564057383372 0.07344302342840359 -0.05412590445377757 -0.05109239656101489 0.02363245062143061 -0.04759519075130099
6198 -0.050991861642158 -0.024091847966723444 -0.04915280049806214 -0.08123871129311422 0.048457230767768165 0.08245979459018563 -0.03515902354401899 -0.029306684233776185 0.024372028162015006 -0.03049876018877783
2072 -0.05584226685929912 0.10528313023885287 0.06957799257420041 -0.1765566548293289 0.08606488966789339 -0.015414759132283597 0.04748532800877408 -0.04880547712584039 -0.012690054377344473 0.07437091618143232
2607 -0.05225239878667842 0.10566028316099561 0.07033531538746808 -0.16331246316305864 0.07093720729358521 -0.01749649370739004 0.03902480832675374 -0.04555334256448173 -0.022879960298532693 0.07291925650295161
6063 -0.03273582117189948 0.09576266870923295 0.027734301557343608 -0.11865649199208304 0.08602660682636372 0.04169693176471333 0.010201725300047546 -0.04267021443564574 0.006951026157888677 0.04437211169732271
1339 -0.03836356660379313 0.09013632504493356 0.04161520061516332 -0.13197352866131254 0.069576288100701 -0.01064549855896958 0.024844418301998197 -0.04774981193738255 -0.020437828981919058 0.05551565252951959
2918 -0.06541210708291532 0.045695879370489606 0.023078643805606622 -0.0853447100287232 0.04842029123844668 -0.007128919940343172 0.010873453691916555 -0.07131347531427687 -0.02453936732849587 0.02677526474484919
47 0.015002797292931129 0.04977742469349975 -0.03887162648699146 -0.11479646695435217 0.036148048878378525 -0.015380640710777407 0.03436654476624169 -0.039948634511642434 0.022930353243927448 -1.56835106318219e-05
1962 0.025074540707633392 0.021058727385115817 -0.05698276595777213 -0.11669531839057579 -0.024076829841470256 -0.10912300860266225 0.04701711114537361 -0.05716839084575906 0.045724117517356666 -0.03205020194580986
4033 -0.04022641477416199 0.0029100382836512962 -0.031701057105304443 -0.09651143727399468 0.023432243519249014 0.0460823844998935 -0.026722462614746787 -0.0020481663913920287 0.00039284663396390126 0.005491229803683001
1775 -0.05410663192397653 0.027982281485977846 -0.049262740236959646 -0.0757962068610043 0.08439886019051611 0.10670428589155366 -0.03744526474995299 -0.03749987913066027 0.023567915300569852 -0.04542484563193206
50 0.029575945294077862 0.029861101822281938 -0.029614813514296474 -0.03752114867879252 0.04552448521573166 0.01571101353632564 0.05570322603675902 0.012057057387564577 -0.008827460986327992 0.0749316329882596
2985 0.11151112569353305 0.06581060821352432 0.004009896502055144 0.12625645890204176 0.11851143940554698 0.033586580643317994 0.2671802560545863 0.09364212198197146 -0.0017345863659802032 0.15368556264507519
1554 0.0285893552070206 0.03383342666811549 -0.04149205602852093 -0.018672192503005357 0.04556025231824527 0.004879881280736462 0.03888247070803687 0.0029524532681994065 -0.01962891920354179 0.06920394085006773
8798 -0.0417911034500652 0.03417168609091881 -0.05159798235558925 -0.0865953203276966 0.09166942518108939 0.10164160870771517 -0.03490715833834766 -0.03103381090029701 0.026580798548569606 -0.030496019361097828
8976 0.0007315284024920379 0.051381568553490686 -0.011539060641963923 -0.12640211322957218 0.09084482526620048 0.06485055645215751 0.018272021144977463 -0.02073391798489109 0.02428703299391262 0.030227517640294188
5126 0.003848016972358437 0.0385497862536662 -0.026036487162158665 -0.1269826130675523 0.09228520644396139 0.06898601518633228 0.012066687987545571 -0.022167966156077606 0.027260360517368597 0.02588348594191996
61 0.00429472723725179 0.07615882183750461 0.04226501449307132 -0.025204820951238056 0.05339929841283806 0.03881793258085868 0.0380936743549145 0.013115167372966727 0.000161850406568482 0.018178994078539852
2225 -0.023210914200992225 0.016667943847233028 -0.04337119639207278 -0.08659288009453762 0.08394247111948314 0.07076190936863155 -0.01607530401254606 -0.038318356436829765 0.014947522016789831 -0.006169399395475277
53 0.029020063244745643 -0.004781690887126721 -0.06156998816762262 -0.059026798867343404 0.07213691390683842 0.09210770909094233 0.0806375797888943 -0.050454422974397437 0.07107871455008512 0.0032916107063991574
640 -0.06888691369109975 -0.17782577714315073 -0.01718383274290223 0.0874399758311652 0.014028652601699623 0.05589249244520671 0.010860630957676733 -0.1569669224797452 0.07805584732586479 -0.025688682354331988
6173 -0.0845907988381762 -0.1385496958364709 -0.023591301188556887 0.010188390949118775 -0.05094965017918792 0.07912790981918853 0.013210609947569146 -0.06702292462969373 0.0946180832251747 -0.024227724204059203
2822 -0.16114399272440602 -0.19808814561967206 -0.055470515127644324 0.12072361470840662 -0.02551228147030803 0.08736101107745618 0.04099803050485325 -0.1673876633843022 0.042159044040523584 -0.06844425815530039
7719 -0.024026291740017473 -0.09259341321868439 -0.07846856274392516 -0.027753260106706312 -0.025594443452110267 0.07037236696354304 0.01631649902008555 -0.03994359963221761 0.06245273070741601 -0.05593350393176999
4751 -0.025690496136754785 -0.11599854400082361 -0.06514019087440108 -0.03527296358327624 -0.03672144455834508 0.06891266484785466 0.012627885183422007 -0.037524904592914125 0.05944454124370904 -0.06365891971983324
641 0.030683973019053533 0.05138382617908337 -0.012775160420562226 -0.05819933560064483 0.04895789754169405 0.07009977938513773 0.11945840812405696 0.031970072977219405 0.036804593461303624 0.08361416320523135
55 0.03942697181202565 -0.03579526052415584 -0.00047655130946177107 0.01147926803830668 0.01897792586935797 -0.035350070269399334 -0.10980175636313907 0.0061281890109475155 0.0877235975120753 0.03814415851093364
5791 0.052525928767374906 -0.017888629509813573 0.04531003391246735 0.06292780714942288 0.037916653939264154 -0.05462172730917971 -0.2362887579713919 0.029606383612788573 0.20960266789504806 0.07193964895668122
6078 0.06289781774882713 -0.0005389730951840035 0.020254119221449134 0.04385734429771167 0.0360193731784171 -0.045249248847391135 -0.1981147922219746 0.026616312566212743 0.18346542556417927 0.060738309020464294
2765 0.047197774254234236 -0.013776023352003603 0.015912725715202913 0.031280784095443 0.027695599094045092 -0.04346924164207018 -0.16842952435449882 0.017783821424030205 0.13964827706711277 0.051323892810215835
6795 0.03286118342293197 -0.13881430792922114 0.04346002051602236 0.04461957797759058 0.05110243075055715 -0.03581822894099991 -0.1263087216151403 -0.03410155439705654 0.14129092664874077 0.0802661750388805
5084 0.06352685349476091 -0.13279028006460647 -0.04776553189139911 -0.020075831437477338 -0.021156420830820838 -0.1004354648757463 -0.201246436222436 0.12488499761184346 0.09462160678168148 0.08096476085687578
8090 0.050836258298364585 0.0044150393749201825 -0.015275572945025582 0.01348788520916053 0.021827471771624203 -0.041988495203636095 -0.1479270270488916 0.042540475968452195 0.11095993394194514 0.06757960530359751
815 0.02143031668464934 -0.15752770781197659 -0.005723860091470886 0.0200085179148057 0.023525481381332865 -0.029939953113502588 -0.11109304242601188 -0.0085792244148263 0.09317128045323517 0.07318842240722757
2550 0.06012789291458671 0.01771369676930963 0.01502104321842142 0.045283326202205626 0.03047537391728012 -0.05598334608567415 -0.2144079736168394 0.04002455709964125 0.18001790960865113 0.07572463909692771
4568 -0.04775956107109244 -0.1876644256074402 -0.009737599306138482 0.05238664778437743 0.0047822788158547415 -0.03691825021418578 -0.07560684340615748 -0.039174107176563014 0.03505440247616235 0.06705424012608495
5686 0.04098873214393577 0.007203730522436732 0.017319988452674222 0.036200334997552736 0.026216026934732576 -0.050551088254842676 -0.19014288330512588 0.022933920766328206 0.13997412006062662 0.05374646581562001
8529 0.04271597724086808 -0.028767208369872427 0.03746913834435358 0.047324396773018466 0.0396511242713782 -0.049540615303725576 -0.17961645442158586 0.004127067621042506 0.14928457651912408 0.061086569027593435
56 0.031153316533816672 0.04324050518570396 0.04779122275810778 0.04724999249324135 0.07163008530684331 -0.0320436982687264 -0.01773119765195553 0.01967064929598623 -0.0700604268989645 -0.0888523665988193
4177 0.027762688626881138 0.04792606693227452 0.03831759200356477 0.037843710850739225 0.043438349774098224 -0.022172351617239294 0.0014324202775977148 0.03369151805552364 -0.05024460546484938 -0.06844363094157659
2508 0.11002881621545547 0.026716053216053665 -0.03532346213654735 0.09470354863180419 0.1828443631484806 -0.1007843443736442 0.018775534615708845 0.13507279580765613 -0.15822838892145866 -0.2373446027105581
1313 0.06601144294726748 0.00727305821398419 0.019603026840701494 0.04690268888408489 0.10534263181007046 -0.06362549778879066 0.01646248058147803 0.13266172343690608 -0.1050185331871239 -0.16162495401226185
6286 0.03897985886722627 0.04335135875952655 0.04975683384192788 0.05586065148070743 0.04837961322886425 -0.029480275429457033 0.01596091494268782 0.058848269755190696 -0.05308213027076268 -0.08402337783423429
2272 0.03931640478045872 0.11676680310612272 0.1864939181206444 0.14062386033833102 0.015446752632297507 -0.0009576026436571249 0.06558247684709531 0.144359342047338 -0.07011409658759929 -0.13433989518075662
4290 0.045883942447109825 0.059226597297018124 0.03881632674147168 0.05692880126406536 0.1376932325557687 -0.07894735051240223 0.02110047270265686 0.12095277319045604 -0.15195148245607604 -0.10147124443165771
958 0.01976895435639323 0.07434070729042089 0.14400988756085586 0.07550699420256844 -0.016075069547292497 -0.01666301755964041 0.0710308792666285 0.16415019464422706 -0.0759290093129573 -0.09051926749697546
8545 0.03576469509020858 0.04987132010440673 0.0718282102356935 0.048163941490549256 0.00930041745615293 -0.01367456727660952 -0.015651746798900523 0.050508552360395045 -0.08203421725356709 -0.10247328434742976
4834 0.022276381941251366 0.06053471983536778 0.06950896640401423 0.05059678413507353 0.03415808387050104 -0.03163878073293074 0.023810771121492245 0.0771752238309655 -0.06730403782109484 -0.06761899043093926
8470 0.05039616616399367 0.015387074957607058 -0.0008399588100134528 0.05774414998403509 0.10178259443426349 -0.055733994275249145 0.009987430519821821 0.05200272296683628 -0.08190945146913213 -0.09842982657764235
6064 0.017711916838315123 0.04134188940761484 0.04529435834741965 0.03334044700366028 0.03286013867142366 -0.026859401666876944 0.006856997268479284 0.05446461235537536 -0.05392977990117581 -0.06975038441753689
5491 0.01957736856547607 0.09380993904710681 0.175179655084399 0.0954951732189516 -0.011416538208837031 -0.009858049270277409 0.0966238427345576 0.16703828987805072 -0.07533185526233203 -0.08756462008304375
7941 -0.0017181517106567574 0.0598808369158991 0.06984853665160046 0.03861659294793714 0.014858340091279787 -0.03329941034391032 0.01437442684455166 0.06012181950144329 -0.05730399373285285 -0.04716395475323909
7675 0.05089006437542509 0.01663148302741634 0.01063238826747128 0.03918964449799903 0.09291047487227387 -0.05887306336884925 0.004482471916565747 0.10767841248175666 -0.09082877341509513 -0.13844304989038633
5039 0.017003222185276116 0.069515314497303 0.1298852664861475 0.07248157204984271 -0.010309373801825353 -0.012844394714246006 0.068338063575608 0.1609831953594988 -0.07129841039527211 -0.08504396834951744
9019 0.04781661071020044 0.014279726524195646 0.01705432991903427 0.046916973844680965 0.08740311001518286 -0.062158891684482215 0.014691927542596187 0.08711790162596857 -0.08714926387304334 -0.11673340165453266
2131 -0.0012005029999552315 0.05337581259668115 0.08337015451916797 0.028520459592303985 -0.01102705625775134 -0.014303537520781165 0.027631961383607153 0.05334385353274621 -0.024875554113630304 -0.03597720249958525
811 0.020661041825486507 0.06603343807182471 0.03817131280093769 0.04142208486719163 0.020674859270058233 -0.019491402669072223 -0.008414528273413909 0.005725256630576497 -0.05546001770864213 -0.05422685669203714
3238 0.024545380420713477 0.0446583697865528 0.04872693485734853 0.03479116532102506 0.04491724780651439 -0.03614514207864823 0.003702642689846749 0.028214770813753724 -0.05195430155934514 -0.07606165986923812
1601 0.031100120696494968 0.09630352563676098 0.1748188154297971 0.1473178663184988 0.006986412615134715 0.008122027107433006 0.08466817740290218 0.16357864961326685 -0.053231093945358104 -0.11058187070504383
5237 0.07324103550430702 0.03495466566364625 0.012491344907215672 0.061210719567082086 0.1233046032425544 -0.06270590304419567 0.002342617194473092 0.1168658815655435 -0.13806048204682514 -0.15224330331347682
870 -0.011316618050490387 0.03710862470273795 0.1104056279464573 0.012963668362423636 -0.04383247560267657 -0.001911626125311226 0.04723800801440294 0.09161064351342349 -0.015706602264797614 -0.02788999197785361
7277 -0.027607112453013408 -0.04912982702031351 0.01457212850881303 0.03381721563924494 -0.05855959660557586 0.006343335517235786 0.016181004478056024 0.03288623276958731 0.0017469036740337712 -0.0632317198658174
687 0.04621289990349952 0.06725383481706611 0.07281057828344975 0.06616819519913703 0.059291085196396864 -0.03143194201994415 0.035890849440605714 0.08837498087898524 -0.07225265566767582 -0.09003654652655704
8455 -0.0029570366391639684 0.06453461141816538 0.04274736576054682 0.034993584621292005 -0.0017169835291135063 -0.00913611926117498 0.016865584087990458 0.03725862818325817 -0.01743924360053457 -0.002091954292564327
6011 0.007162991238855496 0.023371891237296744 0.053132736085063685 0.02144855344579296 -0.02935236176646246 -0.0021316662036638748 0.006361008014505437 0.0590189272219024 -0.03323091418451903 -0.04660527606940417
3872 0.05598416803600036 0.03257109885981119 0.004954026497748032 0.04313058323934694 0.09371251731701369 -0.06339374471400532 0.002062282494208485 0.08869536542772483 -0.10213854701634412 -0.13735713371075559
860 -0.0023062272286731946 0.05794842694780139 0.09188159566850233 0.037291405894740955 -0.021160863642749425 0.0014103006574336316 0.030929812855787137 0.06023866409315085 -0.020095503963130267 -0.028632143287499696
1724 0.06139573812213774 0.03138646889614117 -0.0007831211841828233 0.04647346823428967 0.1020673657192716 -0.06749579016013861 0.003269360283524156 0.09533614230962854 -0.10665975011045188 -0.14964349488032552
509 0.03259733566244318 0.08172614946949029 0.12435726309290325 0.11382877673533856 -0.0017238393409334685 0.011907787203968564 0.08271372166876226 0.13675556165894662 -0.033729818613018235 -0.06331171601228563
6293 0.01231188962660387 0.09559954422671507 0.14684146015032926 0.04690832142682526 -0.0826556526636112 0.034416710387786514 0.027900553173330497 -0.004963512259110261 -0.036186967551716194 0.011530062006846607
451 0.030451715820971743 0.017118673791662212 -0.0020132962930494076 0.026484369380703986 0.060024727550295115 -0.05377364121833197 -0.0012626110475246026 0.08414193445170587 -0.08827371948613785 -0.09759830692373413
2051 0.014508182137584546 0.07173984355700164 0.04566882158252954 0.04072862054591232 0.019002625442407987 -0.007209084700273221 0.02684929463746173 0.02219243058105745 -0.030790587047102577 -0.02175434546163502
2640 -0.0040150981233961595 0.0589611338627078 0.09443531359830552 0.032991537214282725 -0.022217056987343383 0.0018758869174773315 0.026385607172443887 0.06263179554096657 -0.022030358312044068 -0.029814188535369008
1241 0.016127775560249927 0.04775857802271965 0.03352062645296421 0.025489597044676515 0.04323486664320928 -0.02590094408643995 0.0021569090866410284 0.038776544968704654 -0.04926177092710828 -0.05035387714083553
6780 0.031942336853296324 0.026935887759924747 0.04176776807493798 0.05567854038730411 0.03647385091594587 -0.009629552494149136 0.026095791179513016 0.05454076687604019 -0.0313588806918464 -0.059406838389919114
57 -0.03352934896306202 -0.015556741261904487 -0.042300294040975565 0.024228088145826075 0.01600951427894521 0.006734401609225319 -0.02747198843108289 -0.06221246637964063 -0.006688841744109511 -0.010829376205156161
309 -0.05027257251151664 -0.0519148624645779 -0.049614158946477895 0.022462936553764655 -0.001597605792806863 0.018222782146850913 -0.0262747417816012 -0.04876528176467089 0.008449054009116783 -0.015561941894001749
563 -0.05139217554132706 -0.05437553239781954 -0.049444032269548896 0.02414352409601052 0.00039085952386105 0.01875474557276881 -0.027305083700914796 -0.05394196535116787 0.00922666828936269 -0.016167045881975928
8240 -0.042816364431719316 -0.052437356245192905 -0.03985102145337672 0.01547117578435744 -0.0007219622583996513 0.016769574901612065 -0.021215389750118566 -0.04703239414205845 0.003739441291377757 -0.012996019905087065
6994 -0.034392445776789654 -0.09607404620353627 -0.040324299543256656 -0.012056628303174291 -0.026512154777757046 0.013009496367198852 -0.01374932048292369 -0.009215802044676279 0.034044479199986474 0.005668377726349751
652 -0.09297692912778399 -0.13694275504378117 -0.06124538407083318 0.03618562519240051 -0.009463962236397467 0.07603953778495366 0.0014299741190076877 -0.11132191994420972 0.04573747453209599 -0.05162948232986142
4415 -0.17124723422330881 -0.14966553725416892 -0.04195568978778674 0.06531369022413479 -0.036786149472204294 0.058288103030034066 -0.04407610219494047 -0.09277421645467983 0.0032083871250161242 -0.03423194199682551
5369 -0.10617623314749892 -0.14421619592660015 -0.05894986787282724 0.047953637980171625 -0.00038956122548816413 0.08282585695052712 0.0016363075031791009 -0.1220309711506513 0.03300552070969721 -0.049996698903867126
6269 -0.1859492287973613 -0.26695629459314074 -0.0014111067539286835 0.200661217703098 0.009108283875563094 -0.04592802272280848 -0.10526653486391095 -0.14427159758568017 0.042394834089965076 0.06987521193772528
58 0.01671366441461976 0.05129859442923633 0.05098000553295357 0.0012249666961344887 -0.0037419763856594897 0.023021271620164457 0.0598701503119765 0.048387027384013355 0.001489958890402491 0.020341967606390298
2561 0.00837796626735677 0.025950726992790933 0.053950301609989766 -0.003995638136359487 -0.0314146280420207 0.03214241265978405 0.07479270612414857 0.07454954721014678 0.01952403601036726 0.030325646010891615
4348 0.09501291807959393 0.11530171746883522 0.04421711696185433 0.037048539982216244 0.005406959197576146 0.01717356410327459 0.08623317992798661 0.07396292248995548 -0.0050134074493306735 -0.2041985885153371
6049 0.08236602915993725 0.09110174593122425 0.1120378192161461 0.184161078555289 -0.007360365106505497 0.053099868950935956 0.18696150371493406 0.17187727790556845 0.06174178770589567 0.03717641800401255
5528 0.017635794513535148 0.07886152675991337 -0.0012764428324720737 0.0028308780763618975 0.05345362575651309 0.001340122807098164 -0.024596376223930953 -0.04324252195834146 -0.0413703397488602 -0.016679979018313237
59 -0.020893946938244395 0.02786882254622868 -0.04567298076000128 -0.03434869616805349 0.06402805717421273 0.04215134127568597 -0.03829618288759963 -0.05115985114606635 0.0011621211377451073 -0.023889195400326742
6566 -0.02744397154832972 0.015567500400449685 -0.04961295140399209 -0.06277126069011654 0.05380246456104586 0.051614792228526246 -0.031568219701938925 -0.02575841669899286 0.016210931333411647 -0.018509038527544642
3393 -0.028224659417065614 0.009638084217697305 -0.0456906612764525 -0.04397823324267262 0.06480768838022354 0.050220169368565465 -0.0367220265128527 -0.052502288657016734 0.01072807939069014 -0.02622921910651417
5013 -0.06739056582219338 -0.11768718228212986 -0.045532654455188094 -0.05232693577614059 0.009325057671019793 0.07207191901097697 -0.028221961604482763 -0.016305573112121018 0.036077146884213665 -0.021155552412157913
7636 -0.055294445847667885 -0.13336917450695984 -0.030630441142881104 0.015243248899259983 0.017018315109856276 0.044809404884540376 -0.01041086924035752 -0.08676475477649948 0.042526488100131474 -0.019397853155254587
2211 -0.053910695319914666 -0.07450898825014943 -0.04473881837419015 -0.0438588986228681 0.020540384873514582 0.051423655070267256 -0.028031893856942366 -0.03296838909571557 0.01974625111931927 -0.012356838004154266
4171 -0.06605142498590606 -0.1151342786305102 -0.05799091255078429 -0.04653640650413555 0.014685848642278765 0.09076374457004018 -0.020458173203640163 -0.031077139690607915 0.04696084257631274 -0.04829050897430884
8694 -0.07873997119326964 -0.22203941937678345 -0.0236415307052658 0.0012294287102505893 0.013843613851869935 0.09097065809962009 0.021355204858714446 -0.11871972375572147 0.09991701769286818 -0.042419269564739404
3319 -0.0954709330362878 -0.030435677859814107 -0.07684728792918057 -0.07464567301296275 0.06575024018168749 0.13636804294012617 -0.04938889490965207 -0.018664209584711763 0.04652538709569247 -0.06828665800512011
6575 -0.08696804597373031 -0.0122359318487957 -0.04782161490738128 -0.17083835331095684 0.12330770117517337 0.17936213335049367 -0.024604598211556233 -0.021377783913958268 0.09072713812827274 -0.05578290946291823
60 0.033110338909336796 0.06307829396689797 0.0701775208966527 0.04810363587556511 -0.0646212939575185 0.021482974165653097 -0.007626784699823392 -0.07965034825132607 -0.021459626196124515 0.022769105817043417
5209 0.09511722495603445 0.07494839259731433 0.1292240085461877 0.04607109291817188 -0.059866513811557436 0.03134773317976864 -0.00969114699475257 -0.05624411934412901 -0.08903132995997494 -0.02573046933941861
3042 0.03710871663554211 0.08147586879100163 0.08426420805821781 0.05957674205995388 -0.05622471388920218 0.02849841963775125 0.011131889140762945 -0.05890807436747191 -0.029899753541354143 0.015130731687465317
7185 0.00856097979002084 0.05247633474785839 0.07805335224904424 0.044045216306505125 -0.08755624693145607 0.035987636808392155 0.013982532017669266 -0.0063337023918765235 -0.029050127662657216 0.013508214113126624
1773 0.2422966321583353 -0.03325571652941385 0.13343814048030583 -0.032471210177867534 -0.09287578392415756 0.14367385427971371 -0.09106030917585518 -0.13168086066694365 -0.19368242731211027 0.04429021609770041
7315 0.042399075548123444 0.13441653565478062 0.21215923207065285 0.11562160754016107 -0.033521863596262844 0.01736642799769242 0.15008565333007057 0.16110038902988688 -0.030923391819934552 -0.08964700925261238
3379 0.09451108317561732 0.062163543247878476 0.06480061569601388 0.11838997917701524 -0.044611313028501395 0.04137400251944302 0.13803648932139378 0.07828015034496527 0.09420761721350676 -0.046243134308677894
7619 0.0031406296712062766 0.04663860460467451 0.08585170636359536 0.05485294085788213 -0.09243027801501175 0.030044139660735426 0.006253543030060111 -0.025444786854278267 -0.017682776006707392 0.0068614837234211795
2876 0.03836948625071266 0.09497234295489818 0.08796880152482277 0.05855356456949777 -0.051016897575340975 0.02594588714275414 0.012576146209663543 -0.06177239971408225 -0.03683411137291332 0.012559261237286599
6301 -0.07193909935536351 0.07250892903535333 0.12816074068029354 -0.02995116995255563 -0.09136719246070679 0.014893145851876977 -0.0015801195671017367 0.08132242683467947 -0.04676396026867951 -0.03883233599702989
